{"learner":{"attributes":{},"feature_names":[],"feature_types":[],"gradient_booster":{"model":{"cats":{"enc":[],"feature_segments":[],"sorted_idx":[]},"gbtree_model_param":{"num_parallel_tree":"1","num_trees":"80"},"iteration_indptr":[0,1,2,3,4,5,6,7,8,9,10,11,12,13,14,15,16,17,18,19,20,21,22,23,24,25,26,27,28,29,30,31,32,33,34,35,36,37,38,39,40,41,42,43,44,45,46,47,48,49,50,51,52,53,54,55,56,57,58,59,60,61,62,63,64,65,66,67,68,69,70,71,72,73,74,75,76,77,78,79,80],"tree_info":[0,0,0,0,0,0,0,0,0,0,0,0,0,0,0,0,0,0,0,0,0,0,0,0,0,0,0,0,0,0,0,0,0,0,0,0,0,0,0,0,0,0,0,0,0,0,0,0,0,0,0,0,0,0,0,0,0,0,0,0,0,0,0,0,0,0,0,0,0,0,0,0,0,0,0,0,0,0,0,0],"trees":[{"base_weights":[-0E0,-4.538067E-1,2.502455E-1,-5.2254397E-1,3.7170858E-3,-1.2920532E-1,4.828457E-1,-1.1151257E-2,-5.703305E-2,3.569761E-2,-2.9803014E-1,5.2958347E-2,3.7170858E-3,-6.286762E-3,1.3176081E-2,-4.245626E-2,-0E0],"categories":[],"categories_nodes":[],"categories_segments":[],"categories_sizes":[],"default_left":[0,0,0,0,0,0,0,0,0,0,0,0,0,0,0,0,0],"id":0,"left_children":[1,3,5,7,-1,9,11,-1,-1,13,15,-1,-1,-1,-1,-1,-1],"loss_changes":[3.2143521E0,3.5894847E-1,1.6726164E0,1.1104298E-1,0E0,2.2562484E-1,2.203126E-1,0E0,0E0,5.3727947E-2,1.47928E-1,0E0,0E0,0E0,0E0,0E0,0E0],"parents":[2147483647,0,0,1,1,2,2,3,3,5,5,6,6,9,9,10,10],"right_children":[2,4,6,8,-1,10,12,-1,-1,14,16,-1,-1,-1,-1,-1,-1],"split_conditions":[8.014667E0,1.0562662E1,1.0032143E1,5E-1,3.7170858E-3,9.5467415E0,4.89E0,-1.1151257E-2,-5.703305E-2,8.506132E0,4.87E0,5.2958347E-2,3.7170858E-3,-6.286762E-3,1.3176081E-2,-4.245626E-2,-0E0],"split_indices":[4,6,6,2,0,4,3,0,0,4,3,0,0,0,0,0,0],"split_type":[0,0,0,0,0,0,0,0,0,0,0,0,0,0,0,0,0],"sum_hessian":[2.6304552E1,9.060457E0,1.7244095E1,7.891366E0,1.1690912E0,6.722275E0,1.0521821E1,1.1690912E0,6.722275E0,3.7995465E0,2.922728E0,9.35273E0,1.1690912E0,2.0459096E0,1.7536368E0,1.7536368E0,1.1690912E0],"tree_param":{"num_deleted":"0","num_feature":"7","num_nodes":"17","size_leaf_vector":"1"}},{"base_weights":[2.5755917E-9,2.816438E-1,-1.3828248E-1,-5.1695038E-2,6.511054E-2,-2.1205713E-1,3.0781254E-1,-3.0112392E-1,1.5195076E-1,-3.5124663E-1,-1.0963791E-2,3.7207056E-2,6.8566645E-3,-3.672603E-2,-1.2450006E-2,-1.0428774E-2,2.440847E-2,-6.060021E-2,-2.5466347E-1,1.826835E-2,-6.1562266E-2,-4.2019885E-2,-1.3494772E-2,-1.3931617E-2,1.7012972E-2],"categories":[],"categories_nodes":[],"categories_segments":[],"categories_sizes":[],"default_left":[0,0,0,0,0,0,0,0,0,0,0,0,0,0,0,0,0,0,0,0,0,0,0,0,0],"id":1,"left_children":[1,3,5,7,-1,9,11,13,15,17,19,-1,-1,-1,-1,-1,-1,-1,21,-1,23,-1,-1,-1,-1],"loss_changes":[1.7148052E0,1.8193108E0,1.0371461E0,4.799843E-1,0E0,7.219919E-1,4.518494E-2,3.077656E-3,1.5225147E-1,2.2194982E-1,1.2529343E-1,0E0,0E0,0E0,0E0,0E0,0E0,0E0,1.9722295E-1,0E0,2.0342267E-1,0E0,0E0,0E0,0E0],"parents":[2147483647,0,0,1,1,2,2,3,3,5,5,6,6,7,7,8,8,9,9,10,10,18,18,20,20],"right_children":[2,4,6,8,-1,10,12,14,16,18,20,-1,-1,-1,-1,-1,-1,-1,22,-1,24,-1,-1,-1,-1],"split_conditions":[9.615872E0,1.0058295E1,1.0742443E1,4.85E0,6.511054E-2,1.0404293E1,4.73E0,1E0,5E-1,4.81E0,4.86E0,3.7207056E-2,6.8566645E-3,-3.672603E-2,-1.2450006E-2,-1.0428774E-2,2.440847E-2,-6.060021E-2,9.862823E0,1.826835E-2,9.868637E0,-4.2019885E-2,-1.3494772E-2,-1.3931617E-2,1.7012972E-2],"split_indices":[5,6,6,3,0,5,3,1,2,3,3,0,0,0,0,0,0,0,6,0,4,0,0,0,0],"split_type":[0,0,0,0,0,0,0,0,0,0,0,0,0,0,0,0,0,0,0,0,0,0,0,0,0],"sum_hessian":[4.2029873E1,1.3499117E1,2.8530758E1,7.548618E0,5.950499E0,2.4932146E1,3.598611E0,3.177768E0,4.3708496E0,1.4292625E1,1.0639521E1,2.399074E0,1.199537E0,1.526746E0,1.651022E0,1.1210697E0,3.2497802E0,2.4791133E0,1.1813513E1,1.6633184E0,8.976202E0,3.904561E0,7.9089513E0,7.019288E0,1.956914E0],"tree_param":{"num_deleted":"0","num_feature":"7","num_nodes":"25","size_leaf_vector":"1"}},{"base_weights":[-1.5902659E-8,-3.068884E-1,1.12242736E-1,-3.541812E-1,-8.682978E-3,-3.6891792E-2,1.6371836E-1,-4.41584E-2,-9.578386E-2,2.119251E-1,-6.0160525E-2,-1.9497184E-2,4.907999E-3,5.5571653E-2,2.866053E-1,-4.169884E-2,4.191612E-2,-1.1296145E-2,1.2162087E-2,3.672841E-2,7.9830205E-3],"categories":[],"categories_nodes":[],"categories_segments":[],"categories_sizes":[],"default_left":[0,0,0,0,0,0,0,0,0,0,0,0,0,0,0,0,0,0,0,0,0],"id":2,"left_children":[1,3,5,7,-1,-1,9,-1,11,13,15,-1,-1,17,19,-1,-1,-1,-1,-1,-1],"loss_changes":[1.455125E0,8.698106E-2,8.2649565E-1,1.6066825E-1,0E0,0E0,3.2178372E-1,0E0,6.055626E-2,2.617644E-1,1.1757116E0,0E0,0E0,1.1311968E-1,2.3516405E-1,0E0,0E0,0E0,0E0,0E0,0E0],"parents":[2147483647,0,0,1,1,2,2,3,3,6,6,8,8,9,9,10,10,13,13,14,14],"right_children":[2,4,6,8,-1,-1,10,-1,12,14,16,-1,-1,18,20,-1,-1,-1,-1,-1,-1],"split_conditions":[9.889239E0,9.867491E0,5.488938E0,4.89E0,-8.682978E-3,-3.6891792E-2,4.89E0,-4.41584E-2,9.741802E0,1.0033405E1,4.9E0,-1.9497184E-2,4.907999E-3,1E0,4.88E0,-4.169884E-2,4.191612E-2,-1.1296145E-2,1.2162087E-2,3.672841E-2,7.9830205E-3],"split_indices":[6,6,4,3,0,0,3,0,6,6,3,0,0,0,3,0,0,0,0,0,0],"split_type":[0,0,0,0,0,0,0,0,0,0,0,0,0,0,0,0,0,0,0,0,0],"sum_hessian":[4.0243664E1,1.0312797E1,2.9930866E1,7.986855E0,2.3259413E0,2.2966285E0,2.7634237E1,5.438389E0,2.5484662E0,2.2782078E1,4.85216E0,1.307397E0,1.2410692E0,7.9279437E0,1.4854135E1,2.8560429E0,1.9961171E0,2.032217E0,5.895726E0,1.0126689E1,4.7274456E0],"tree_param":{"num_deleted":"0","num_feature":"7","num_nodes":"21","size_leaf_vector":"1"}},{"base_weights":[-1.9149275E-9,-2.370082E-1,1.2173538E-1,-4.509692E-2,-1.4964142E-1,-1.6822997E-2,3.678197E-1,6.534498E-2,-2.7999264E-1,-1.2947857E-1,1.981732E-1,1.7465448E-1,4.7918085E-2,-2.0082815E-2,2.0658443E-2,-9.699724E-3,-3.141246E-1,-1.9923191E-1,2.1427944E-2,2.4491403E-2,3.8458959E-3,2.0676771E-2,3.781107E-3,-4.7746487E-3,8.7564485E-4,-3.4631196E-2,-8.633652E-3,-4.830189E-4,-3.3564504E-2],"categories":[],"categories_nodes":[],"categories_segments":[],"categories_sizes":[],"default_left":[0,0,0,0,0,0,0,0,0,0,0,0,0,0,0,0,0,0,0,0,0,0,0,0,0,0,0,0,0],"id":3,"left_children":[1,3,5,-1,7,9,11,13,15,17,19,21,-1,23,-1,-1,25,27,-1,-1,-1,-1,-1,-1,-1,-1,-1,-1,-1],"loss_changes":[1.1952848E0,1.9530386E-1,9.394146E-1,0E0,3.399707E-1,4.7293222E-1,1.2933409E-1,6.620926E-2,1.5345991E-2,3.4774697E-1,4.0929884E-2,1.5010953E-2,0E0,3.702147E-3,0E0,0E0,1.2151539E-2,2.9258862E-1,0E0,0E0,0E0,0E0,0E0,0E0,0E0,0E0,0E0,0E0,0E0],"parents":[2147483647,0,0,1,1,2,2,4,4,5,5,6,6,7,7,8,8,9,9,10,10,11,11,13,13,16,16,17,17],"right_children":[2,4,6,-1,8,10,12,14,16,18,20,22,-1,24,-1,-1,26,28,-1,-1,-1,-1,-1,-1,-1,-1,-1,-1,-1],"split_conditions":[9.916791E0,4.83E0,9.09829E0,-4.509692E-2,9.7981825E0,1.0590266E1,1.0077303E1,9.392745E0,9.741802E0,1.0545368E1,8.439664E0,1.5E0,4.7918085E-2,5E-1,2.0658443E-2,-9.699724E-3,9.752606E0,1.0113049E1,2.1427944E-2,2.4491403E-2,3.8458959E-3,2.0676771E-2,3.781107E-3,-4.7746487E-3,8.7564485E-4,-3.4631196E-2,-8.633652E-3,-4.830189E-4,-3.3564504E-2],"split_indices":[6,3,4,0,5,6,6,5,6,5,4,0,0,1,0,0,4,6,0,0,0,0,0,0,0,0,0,0,0],"split_type":[0,0,0,0,0,0,0,0,0,0,0,0,0,0,0,0,0,0,0,0,0,0,0,0,0,0,0,0,0],"sum_hessian":[3.942774E1,1.3058011E1,2.6369726E1,2.579364E0,1.0478647E1,1.7466698E1,8.903029E0,4.1435122E0,6.3351355E0,1.1722174E1,5.744523E0,4.194931E0,4.708098E0,3.116392E0,1.0271201E0,1.599798E0,4.7353373E0,1.0094324E1,1.6278503E0,4.0313005E0,1.7132227E0,2.9837499E0,1.2111812E0,1.2559919E0,1.8604E0,3.6931553E0,1.042182E0,4.5894E0,5.504924E0],"tree_param":{"num_deleted":"0","num_feature":"7","num_nodes":"29","size_leaf_vector":"1"}},{"base_weights":[1.6824274E-9,-1.5715782E-1,1.1080401E-1,-4.189375E-2,-9.3940474E-2,3.4182063E-1,-8.465414E-3,-2.0053813E-1,-1.5314155E-2,1.3855437E-2,3.7699413E-2,5.5678047E-2,-2.5928676E-2,4.35082E-3,-2.6162107E-2,1.141295E-1,-1.3310681E-1,-1.6899824E-2,1.0651677E-1,-1.9842832E-4,1.5476196E-2,-5.5243606E-3,-1.6359212E-2,1.3406813E-3,2.3002991E-2],"categories":[],"categories_nodes":[],"categories_segments":[],"categories_sizes":[],"default_left":[0,0,0,0,0,0,0,0,0,0,0,0,0,0,0,0,0,0,0,0,0,0,0,0,0],"id":4,"left_children":[1,3,5,-1,7,9,11,13,15,-1,-1,17,-1,-1,-1,19,21,-1,23,-1,-1,-1,-1,-1,-1],"loss_changes":[7.1136475E-1,2.4019235E-1,6.630341E-1,0E0,1.2177251E-1,6.263137E-3,2.8435135E-1,1.0440713E-1,1.6240694E-1,0E0,0E0,1.800076E-1,0E0,0E0,0E0,2.4550058E-2,4.057333E-3,0E0,1.3698553E-1,0E0,0E0,0E0,0E0,0E0,0E0],"parents":[2147483647,0,0,1,1,2,2,4,4,5,5,6,6,7,7,8,8,11,11,15,15,16,16,18,18],"right_children":[2,4,6,-1,8,10,12,14,16,-1,-1,18,-1,-1,-1,20,22,-1,24,-1,-1,-1,-1,-1,-1],"split_conditions":[9.983217E0,9.741801E0,9.7981825E0,-4.189375E-2,8.014667E0,1.0058295E1,4.89E0,6.0844994E0,5E-1,1.3855437E-2,3.7699413E-2,7.5294065E0,-2.5928676E-2,4.35082E-3,-2.6162107E-2,8.413387E0,9.916791E0,-1.6899824E-2,1E0,-1.9842832E-4,1.5476196E-2,-5.5243606E-3,-1.6359212E-2,1.3406813E-3,2.3002991E-2],"split_indices":[6,6,5,0,4,6,3,4,1,0,0,4,0,0,0,4,6,0,0,0,0,0,0,0,0],"split_type":[0,0,0,0,0,0,0,0,0,0,0,0,0,0,0,0,0,0,0,0,0,0,0,0,0],"sum_hessian":[3.885083E1,1.589209E1,2.295874E1,1.9967437E0,1.3895347E1,7.181914E0,1.5776826E1,5.2402945E0,8.655052E0,1.7880445E0,5.39387E0,1.3183403E1,2.593423E0,1.106637E0,4.1336575E0,4.138408E0,4.516644E0,2.003767E0,1.1179636E1,1.319342E0,2.819066E0,2.062051E0,2.454593E0,7.0064173E0,4.1732187E0],"tree_param":{"num_deleted":"0","num_feature":"7","num_nodes":"25","size_leaf_vector":"1"}},{"base_weights":[-2.5253908E-9,-3.687945E-2,6.143286E-2,-9.64014E-2,1.4336757E-1,-2.900962E-2,-3.8100004E-2,1.9453177E-1,-1.23211324E-1,1.4685524E-2,-1.149147E-1,6.6976294E-2,2.5097105E-1,-3.6970954E-2,2.4366602E-2,-2.9775426E-3,5.0767493E-3,-2.2740714E-2,2.4321426E-3,-5.09184E-4,1.1256987E-2,3.181015E-2,1.3254359E-2],"categories":[],"categories_nodes":[],"categories_segments":[],"categories_sizes":[],"default_left":[0,0,0,0,0,0,0,0,0,0,0,0,0,0,0,0,0,0,0,0,0,0,0],"id":5,"left_children":[1,-1,3,5,7,-1,9,11,13,15,17,19,21,-1,-1,-1,-1,-1,-1,-1,-1,-1,-1],"loss_changes":[9.166623E-1,0E0,4.623388E-1,1.2953863E-1,3.408466E-1,0E0,4.5156486E-2,1.2630612E-1,4.837704E-1,1.3127666E-2,7.569748E-2,2.5091905E-2,6.45085E-2,0E0,0E0,0E0,0E0,0E0,0E0,0E0,0E0,0E0,0E0],"parents":[2147483647,0,0,2,2,3,3,4,4,6,6,7,7,8,8,9,9,10,10,11,11,12,12],"right_children":[2,-1,4,6,8,-1,10,12,14,16,18,20,22,-1,-1,-1,-1,-1,-1,-1,-1,-1,-1],"split_conditions":[6.7569323E0,-3.687945E-2,9.920734E0,4.83E0,4.89E0,-2.900962E-2,1.0434145E1,1.0077303E1,4.9E0,4.86E0,9.752606E0,4.83E0,4.86E0,-3.6970954E-2,2.4366602E-2,-2.9775426E-3,5.0767493E-3,-2.2740714E-2,2.4321426E-3,-5.09184E-4,1.1256987E-2,3.181015E-2,1.3254359E-2],"split_indices":[4,0,6,3,3,0,5,6,3,3,4,3,3,0,0,0,0,0,0,0,0,0,0],"split_type":[0,0,0,0,0,0,0,0,0,0,0,0,0,0,0,0,0,0,0,0,0,0,0],"sum_hessian":[3.8459843E1,4.7773266E0,3.3682514E1,1.1449775E1,2.223274E1,1.7291652E0,9.72061E0,1.8879488E1,3.3532526E0,6.2408442E0,3.4797652E0,6.4619246E0,1.24175625E1,2.0010583E0,1.3521943E0,2.8741012E0,3.366743E0,1.5744658E0,1.9052994E0,2.848199E0,3.6137257E0,6.8491087E0,5.5684543E0],"tree_param":{"num_deleted":"0","num_feature":"7","num_nodes":"23","size_leaf_vector":"1"}},{"base_weights":[-9.960377E-10,-1.7445743E-1,9.351101E-2,-2.6327E-1,5.3034313E-2,-2.5469597E-2,1.8804786E-1,-3.3378482E-2,-3.8851842E-3,-8.028262E-3,1.3866666E-2,-1.7559053E-2,1.4913601E-2,3.1979585E-1,1.0179816E-1,1.07481545E-2,-9.566265E-3,5.174663E-2,-4.811087E-2,1.1674089E-2,4.1066196E-2,-1.7350493E-2,2.088971E-1,-3.1640807E-3,7.1027684E-3,-1.1243531E-2,3.4986876E-3,6.5862993E-3,2.4268672E-2],"categories":[],"categories_nodes":[],"categories_segments":[],"categories_sizes":[],"default_left":[0,0,0,0,0,0,0,0,0,0,0,0,0,0,0,0,0,0,0,0,0,0,0,0,0,0,0,0,0],"id":6,"left_children":[1,3,5,7,9,11,13,-1,-1,15,-1,-1,17,19,21,-1,-1,23,25,-1,-1,-1,27,-1,-1,-1,-1,-1,-1],"loss_changes":[6.531576E-1,2.9624555E-1,2.979793E-1,1.487022E-1,2.597836E-2,7.792297E-2,1.3385111E-1,0E0,0E0,4.7949795E-2,0E0,0E0,2.7351994E-2,5.034542E-2,3.4044623E-1,0E0,0E0,1.3890179E-2,2.7820025E-2,0E0,0E0,0E0,2.2107571E-2,0E0,0E0,0E0,0E0,0E0,0E0],"parents":[2147483647,0,0,1,1,2,2,3,3,4,4,5,5,6,6,9,9,12,12,13,13,14,14,17,17,18,18,22,22],"right_children":[2,4,6,8,10,12,14,-1,-1,16,-1,-1,18,20,22,-1,-1,24,26,-1,-1,-1,28,-1,-1,-1,-1,-1,-1],"split_conditions":[8.014667E0,1.0455043E1,1.0033405E1,5E-1,5E-1,9.828125E0,9.392745E0,-3.3378482E-2,-3.8851842E-3,8.987322E0,1.3866666E-2,-1.7559053E-2,9.5467415E0,1.0161448E1,1.0165891E1,1.07481545E-2,-9.566265E-3,8.348301E0,1.5E0,1.1674089E-2,4.1066196E-2,-1.7350493E-2,8.439664E0,-3.1640807E-3,7.1027684E-3,-1.1243531E-2,3.4986876E-3,6.5862993E-3,2.4268672E-2],"split_indices":[4,6,6,1,1,6,5,0,0,5,0,0,4,6,5,0,0,4,0,0,0,0,4,0,0,0,0,0,0],"split_type":[0,0,0,0,0,0,0,0,0,0,0,0,0,0,0,0,0,0,0,0,0,0,0,0,0,0,0,0,0],"sum_hessian":[3.803739E1,1.297156E1,2.5065834E1,9.216265E0,3.7552943E0,1.1421607E1,1.3644228E1,6.641952E0,2.5743132E0,2.721149E0,1.0341452E0,1.7114257E0,9.710181E0,4.3269463E0,9.317281E0,1.0761769E0,1.6449722E0,6.2414627E0,3.4687183E0,2.044017E0,2.2829294E0,2.4358263E0,6.881455E0,1.0517563E0,5.1897063E0,1.7562153E0,1.712503E0,1.878562E0,5.0028925E0],"tree_param":{"num_deleted":"0","num_feature":"7","num_nodes":"29","size_leaf_vector":"1"}},{"base_weights":[1.1541502E-9,-1.5351172E-1,8.7979205E-2,-3.4344174E-2,-8.547587E-2,-9.2892356E-2,1.4545321E-1,-1.4838037E-1,-1.799352E-2,-1.3673522E-2,1.7914467E-3,3.1318422E-2,7.951865E-2,-1.7037539E-2,-3.3677202E-3,2.7514229E-2,-9.962677E-3,-4.952628E-2,1.6044858E-1,-2.5663467E-3,6.647169E-3,-1.313338E-2,4.487904E-3,6.890045E-3,1.8621061E-2],"categories":[],"categories_nodes":[],"categories_segments":[],"categories_sizes":[],"default_left":[0,0,0,0,0,0,0,0,0,0,0,0,0,0,0,0,0,0,0,0,0,0,0,0,0],"id":7,"left_children":[1,3,5,-1,7,9,11,13,15,-1,-1,-1,17,-1,-1,19,-1,21,23,-1,-1,-1,-1,-1,-1],"loss_changes":[5.3662497E-1,1.5769494E-1,2.7607346E-1,0E0,4.822255E-2,3.5002533E-2,1.9137883E-1,9.568527E-3,2.845606E-2,0E0,0E0,0E0,1.6855428E-1,0E0,0E0,1.2536574E-2,0E0,5.757267E-2,1.0016784E-2,0E0,0E0,0E0,0E0,0E0,0E0],"parents":[2147483647,0,0,1,1,2,2,4,4,5,5,6,6,7,7,8,8,12,12,15,15,17,17,18,18],"right_children":[2,4,6,-1,8,10,12,14,16,-1,-1,-1,18,-1,-1,20,-1,22,24,-1,-1,-1,-1,-1,-1],"split_conditions":[9.920734E0,4.83E0,7.843064E0,-3.4344174E-2,8.014667E0,1.0562662E1,9.392745E0,9.8628235E0,9.913037E0,-1.3673522E-2,1.7914467E-3,3.1318422E-2,5E-1,-1.7037539E-2,-3.3677202E-3,9.834761E0,-9.962677E-3,1.0165891E1,1.0077303E1,-2.5663467E-3,6.647169E-3,-1.313338E-2,4.487904E-3,6.890045E-3,1.8621061E-2],"split_indices":[6,3,4,0,4,6,5,6,6,0,0,0,2,0,0,6,0,5,6,0,0,0,0,0,0],"split_type":[0,0,0,0,0,0,0,0,0,0,0,0,0,0,0,0,0,0,0,0,0,0,0,0,0],"sum_hessian":[3.773281E1,1.3475331E1,2.425748E1,2.4863746E0,1.0988956E1,5.7007833E0,1.8556698E1,5.066942E0,5.922014E0,3.916964E0,1.7838191E0,4.1780996E0,1.4378598E1,3.8443966E0,1.2225456E0,4.228001E0,1.6940132E0,5.691455E0,8.687143E0,1.9320115E0,2.2959898E0,2.8396068E0,2.8518481E0,2.7146914E0,5.9724517E0],"tree_param":{"num_deleted":"0","num_feature":"7","num_nodes":"25","size_leaf_vector":"1"}},{"base_weights":[-2.4173992E-9,-1.5528789E-1,8.845997E-2,-2.1308953E-1,-5.982412E-2,2.9137162E-3,2.2407411E-1,-3.1380728E-2,-1.4550824E-1,1.1603512E-2,-1.2584133E-1,-2.32152E-2,4.326711E-2,7.818536E-2,2.9707486E-2,-3.75246E-3,-1.7854424E-2,6.5674917E-3,-3.7784593E-3,-1.9248603E-3,-1.5960542E-2,9.355168E-2,-9.382181E-2,9.916586E-3,2.907058E-3,-5.658855E-3,1.4166564E-2,3.936609E-3,-1.9623248E-2],"categories":[],"categories_nodes":[],"categories_segments":[],"categories_sizes":[],"default_left":[0,0,0,0,0,0,0,0,0,0,0,0,0,0,0,0,0,0,0,0,0,0,0,0,0,0,0,0,0],"id":8,"left_children":[1,3,5,7,9,11,13,-1,15,17,19,-1,21,23,-1,-1,-1,-1,-1,-1,-1,25,27,-1,-1,-1,-1,-1,-1],"loss_changes":[5.4295665E-1,6.640476E-2,2.9148203E-1,1.2497008E-2,3.3525985E-2,1.6612379E-1,8.036658E-2,0E0,1.8192917E-2,1.3648956E-2,9.950239E-3,0E0,1.1139504E-1,1.8585362E-3,0E0,0E0,0E0,0E0,0E0,0E0,0E0,9.031086E-2,6.9025695E-2,0E0,0E0,0E0,0E0,0E0,0E0],"parents":[2147483647,0,0,1,1,2,2,3,3,4,4,5,5,6,6,8,8,9,9,10,10,12,12,13,13,21,21,22,22],"right_children":[2,4,6,8,10,12,14,-1,16,18,20,-1,22,24,-1,-1,-1,-1,-1,-1,-1,26,28,-1,-1,-1,-1,-1,-1],"split_conditions":[9.920734E0,9.867491E0,9.069583E0,4.83E0,9.913037E0,4.81E0,1.0077303E1,-3.1380728E-2,4.86E0,5E-1,1E0,-2.32152E-2,4.89E0,9.7981825E0,2.9707486E-2,-3.75246E-3,-1.7854424E-2,6.5674917E-3,-3.7784593E-3,-1.9248603E-3,-1.5960542E-2,7.843064E0,5E-1,9.916586E-3,2.907058E-3,-5.658855E-3,1.4166564E-2,3.936609E-3,-1.9623248E-2],"split_indices":[6,6,4,3,6,3,6,0,3,1,2,0,3,5,0,0,0,0,0,0,0,4,1,0,0,0,0,0,0],"split_type":[0,0,0,0,0,0,0,0,0,0,0,0,0,0,0,0,0,0,0,0,0,0,0,0,0,0,0,0,0],"sum_hessian":[3.752581E1,1.3344544E1,2.4181265E1,7.544395E0,5.800149E0,1.5454165E1,8.727099E0,1.5664605E0,5.977935E0,3.18181E0,2.6183393E0,1.5678992E0,1.3886267E1,3.6012278E0,5.1258717E0,1.9007818E0,4.0771527E0,1.3614672E0,1.8203427E0,1.0075643E0,1.610775E0,1.0392028E1,3.4942389E0,1.8092864E0,1.7919414E0,2.4792764E0,7.912751E0,1.7864789E0,1.70776E0],"tree_param":{"num_deleted":"0","num_feature":"7","num_nodes":"29","size_leaf_vector":"1"}},{"base_weights":[3.304391E-10,-1.7574528E-1,6.939931E-2,-2.8938606E-2,-1.1596555E-1,2.3589611E-1,2.1524675E-2,-4.883954E-2,-2.039628E-2,1.0111738E-2,2.7773714E-2,-5.030973E-2,1.1983195E-1,-6.1123776E-3,-9.289531E-4,-1.2353819E-1,1.3681477E-1,1.9331003E-2,2.1948013E-2,-1.5803806E-2,3.783496E-3,1.9107984E-2,3.6261796E-3,-6.9134743E-3,7.939885E-3],"categories":[],"categories_nodes":[],"categories_segments":[],"categories_sizes":[],"default_left":[0,0,0,0,0,0,0,0,0,0,0,0,0,0,0,0,0,0,0,0,0,0,0,0,0],"id":9,"left_children":[1,3,5,-1,7,9,11,13,-1,-1,-1,15,17,-1,-1,19,21,-1,23,-1,-1,-1,-1,-1,-1],"loss_changes":[4.8002404E-1,4.2132378E-2,2.1982627E-1,0E0,4.302252E-2,6.8840384E-3,1.6855392E-1,2.5431244E-3,0E0,0E0,0E0,2.0876949E-1,6.777045E-2,0E0,0E0,6.493336E-2,1.714962E-2,0E0,3.385786E-2,0E0,0E0,0E0,0E0,0E0,0E0],"parents":[2147483647,0,0,1,1,2,2,4,4,5,5,6,6,7,7,11,11,12,12,15,15,16,16,18,18],"right_children":[2,4,6,-1,8,10,12,14,-1,-1,-1,16,18,-1,-1,20,22,-1,24,-1,-1,-1,-1,-1,-1],"split_conditions":[9.88924E0,9.741802E0,9.392745E0,-2.8938606E-2,1.0239996E1,1.0161448E1,9.069583E0,4.86E0,-2.039628E-2,1.0111738E-2,2.7773714E-2,1.0545368E1,5E-1,-6.1123776E-3,-9.289531E-4,1.0590265E1,4.86E0,1.9331003E-2,9.920734E0,-1.5803806E-2,3.783496E-3,1.9107984E-2,3.6261796E-3,-6.9134743E-3,7.939885E-3],"split_indices":[6,6,5,0,5,6,4,3,0,0,0,5,1,0,0,6,3,0,6,0,0,0,0,0,0],"split_type":[0,0,0,0,0,0,0,0,0,0,0,0,0,0,0,0,0,0,0,0,0,0,0,0,0],"sum_hessian":[3.73572E1,1.0141843E1,2.7215357E1,2.1720047E0,7.9698386E0,5.2008038E0,2.2014553E1,5.403191E0,2.5666475E0,2.0414786E0,3.1593251E0,1.3002036E1,9.012516E0,3.706478E0,1.6967129E0,9.589235E0,3.4128008E0,4.591184E0,4.4213324E0,7.917273E0,1.671962E0,1.6318537E0,1.7809471E0,1.6314512E0,2.789881E0],"tree_param":{"num_deleted":"0","num_feature":"7","num_nodes":"25","size_leaf_vector":"1"}},{"base_weights":[5.1751843E-9,-1.7537582E-1,6.5447435E-2,-2.7812544E-1,-1.1205431E-1,-7.669759E-2,1.1160796E-1,-3.3389058E-2,-8.997769E-3,-1.6656113E-1,-2.5766578E-2,-1.03370674E-1,1.4271413E-3,3.105775E-2,7.2948046E-2,-2.1885147E-2,-5.109919E-3,-4.5263823E-3,8.996036E-4,-1.4686157E-2,-5.687806E-2,1.1117977E-1,-1.9290261E-2,-2.3733285E-4,-8.884071E-3,6.361738E-3,1.9690547E-2],"categories":[],"categories_nodes":[],"categories_segments":[],"categories_sizes":[],"default_left":[0,0,0,0,0,0,0,0,0,0,0,0,0,0,0,0,0,0,0,0,0,0,0,0,0,0,0],"id":10,"left_children":[1,3,5,7,9,11,13,-1,-1,15,17,19,-1,-1,21,-1,-1,-1,-1,-1,23,25,-1,-1,-1,-1,-1],"loss_changes":[4.5040825E-1,3.8220465E-2,1.9606712E-1,5.5414736E-3,3.4618057E-2,1.9911058E-2,1.4640945E-1,0E0,0E0,1.8323287E-2,3.379757E-3,3.7718788E-3,0E0,0E0,2.2177993E-1,0E0,0E0,0E0,0E0,0E0,7.681554E-3,6.03206E-2,0E0,0E0,0E0,0E0,0E0],"parents":[2147483647,0,0,1,1,2,2,3,3,4,4,5,5,6,6,9,9,10,10,11,11,14,14,20,20,21,21],"right_children":[2,4,6,8,10,12,14,-1,-1,16,18,20,-1,-1,22,-1,-1,-1,-1,-1,24,26,-1,-1,-1,-1,-1],"split_conditions":[9.889239E0,4.83E0,7.843064E0,9.834762E0,8.014667E0,4.9E0,9.105091E0,-3.3389058E-2,-8.997769E-3,1.5E0,9.834761E0,1.0400391E1,1.4271413E-3,3.105775E-2,4.89E0,-2.1885147E-2,-5.109919E-3,-4.5263823E-3,8.996036E-4,-1.4686157E-2,4.88E0,1.0590265E1,-1.9290261E-2,-2.3733285E-4,-8.884071E-3,6.361738E-3,1.9690547E-2],"split_indices":[6,3,4,6,4,3,5,0,0,0,6,6,0,0,3,0,0,0,0,0,3,6,0,0,0,0,0],"split_type":[0,0,0,0,0,0,0,0,0,0,0,0,0,0,0,0,0,0,0,0,0,0,0,0,0,0,0],"sum_hessian":[3.7241352E1,9.664443E0,2.757691E1,2.391524E0,7.272919E0,6.597934E0,2.0978977E1,1.2472364E0,1.1442876E0,3.8871555E0,3.3857634E0,4.99656E0,1.6013736E0,2.268775E0,1.8710201E1,2.0591612E0,1.8279945E0,1.9756184E0,1.410145E0,1.4662042E0,3.530356E0,1.6866451E1,1.8437513E0,1.7020926E0,1.8282633E0,1.1968297E1,4.8981543E0],"tree_param":{"num_deleted":"0","num_feature":"7","num_nodes":"27","size_leaf_vector":"1"}},{"base_weights":[-1.234E-8,-1.6459124E-1,7.9683565E-2,-2.9460594E-2,-1.10327035E-1,1.3794076E-2,1.7304434E-1,-1.7538166E-2,-1.4444922E-1,8.6519755E-2,-2.3852077E-1,7.355607E-2,2.1709966E-2,-2.0421492E-3,-4.5331704E-4,-1.6945938E-2,-7.579657E-2,-5.0172765E-2,1.3662577E-1,-6.742871E-3,-3.496597E-2,2.6623507E-3,9.326746E-3,6.5024397E-3,-1.5702635E-2,-9.510446E-3,1.952173E-4,2.0834602E-2,4.791304E-3],"categories":[],"categories_nodes":[],"categories_segments":[],"categories_sizes":[],"default_left":[0,0,0,0,0,0,0,0,0,0,0,0,0,0,0,0,0,0,0,0,0,0,0,0,0,0,0,0,0],"id":11,"left_children":[1,3,5,-1,7,9,11,13,15,17,19,21,-1,-1,-1,-1,23,25,27,-1,-1,-1,-1,-1,-1,-1,-1,-1,-1],"loss_changes":[5.138453E-1,5.766508E-2,1.600053E-1,0E0,3.1077743E-2,3.2456383E-1,3.152439E-2,5.7131867E-5,2.4490058E-4,9.99409E-2,5.1951215E-2,1.9926354E-3,0E0,0E0,0E0,0E0,5.419129E-2,1.0436826E-2,5.500385E-2,0E0,0E0,0E0,0E0,0E0,0E0,0E0,0E0,0E0,0E0],"parents":[2147483647,0,0,1,1,2,2,4,4,5,5,6,6,7,7,8,8,9,9,10,10,11,11,16,16,17,17,18,18],"right_children":[2,4,6,-1,8,10,12,14,16,18,20,22,-1,-1,-1,-1,24,26,28,-1,-1,-1,-1,-1,-1,-1,-1,-1,-1],"split_conditions":[9.920335E0,4.83E0,9.069583E0,-2.9460594E-2,4.86E0,8.802523E0,1.0033405E1,4.85E0,9.867491E0,4.83E0,5E-1,1E0,2.1709966E-2,-2.0421492E-3,-4.5331704E-4,-1.6945938E-2,9.913037E0,1E0,4.88E0,-6.742871E-3,-3.496597E-2,2.6623507E-3,9.326746E-3,6.5024397E-3,-1.5702635E-2,-9.510446E-3,1.952173E-4,2.0834602E-2,4.791304E-3],"split_indices":[6,3,4,0,3,4,6,3,6,3,1,0,0,0,0,0,6,0,3,0,0,0,0,0,0,0,0,0,0],"split_type":[0,0,0,0,0,0,0,0,0,0,0,0,0,0,0,0,0,0,0,0,0,0,0,0,0,0,0,0,0],"sum_hessian":[3.7179317E1,1.1780477E1,2.5398842E1,2.1647425E0,9.615734E0,1.556299E1,9.835852E0,2.9924116E0,6.6233225E0,1.2590949E1,2.9720416E0,3.8380885E0,5.9977636E0,1.9825759E0,1.0098357E0,3.7784672E0,2.8448553E0,3.3769832E0,9.213965E0,1.8030517E0,1.1689899E0,1.8304577E0,2.0076308E0,1.113675E0,1.7311802E0,1.370803E0,2.0061803E0,4.3492475E0,4.8647184E0],"tree_param":{"num_deleted":"0","num_feature":"7","num_nodes":"29","size_leaf_vector":"1"}},{"base_weights":[-1.079095E-9,-1.3958597E-1,7.405825E-2,-1.9677049E-1,-4.624577E-2,-1.949375E-2,1.1033545E-1,-2.9107327E-2,-1.3524143E-1,-8.374662E-2,3.787086E-3,1.9756863E-1,7.315443E-2,-4.604352E-2,-2.0674558E-2,1.7497551E-3,-1.3003558E-2,8.106845E-3,2.4512032E-1,3.2793928E-2,1.5740526E-1,-5.253141E-3,-1.2611852E-3,8.264696E-3,3.0796481E-2,-3.0113487E-3,1.1074807E-2,2.2880685E-2,6.3426117E-3],"categories":[],"categories_nodes":[],"categories_segments":[],"categories_sizes":[],"default_left":[0,0,0,0,0,0,0,0,0,0,0,0,0,0,0,0,0,0,0,0,0,0,0,0,0,0,0,0,0],"id":12,"left_children":[1,3,5,7,9,-1,11,-1,13,15,-1,17,19,21,-1,-1,-1,-1,23,25,27,-1,-1,-1,-1,-1,-1,-1,-1],"loss_changes":[4.0289956E-1,6.301278E-2,2.6999986E-1,7.462591E-3,2.3485541E-2,0E0,6.0394824E-2,0E0,3.354366E-2,2.460863E-2,0E0,1.5076101E-2,5.525765E-2,2.6813895E-4,0E0,0E0,0E0,0E0,1.5244499E-2,6.844158E-2,2.2339344E-2,0E0,0E0,0E0,0E0,0E0,0E0,0E0,0E0],"parents":[2147483647,0,0,1,1,2,2,3,3,4,4,6,6,8,8,9,9,11,11,12,12,13,13,18,18,19,19,20,20],"right_children":[2,4,6,8,10,-1,12,-1,14,16,-1,18,20,22,-1,-1,-1,-1,24,26,28,-1,-1,-1,-1,-1,-1,-1,-1],"split_conditions":[9.920734E0,9.867491E0,5.488938E0,9.736295E0,4.87E0,-1.949375E-2,9.392745E0,-2.9107327E-2,9.898525E0,9.880446E0,3.787086E-3,1.0217869E1,1.0571342E1,9.828125E0,-2.0674558E-2,1.7497551E-3,-1.3003558E-2,8.106845E-3,8.987322E0,9.069583E0,4.86E0,-5.253141E-3,-1.2611852E-3,8.264696E-3,3.0796481E-2,-3.0113487E-3,1.1074807E-2,2.2880685E-2,6.3426117E-3],"split_indices":[6,6,4,6,3,0,5,0,5,6,0,6,5,6,0,0,0,0,5,4,3,0,0,0,0,0,0,0,0],"split_type":[0,0,0,0,0,0,0,0,0,0,0,0,0,0,0,0,0,0,0,0,0,0,0,0,0,0,0,0,0],"sum_hessian":[3.697459E1,1.2510264E1,2.4464325E1,7.070469E0,5.439796E0,2.3874924E0,2.2076834E1,1.3186977E0,5.7517715E0,3.7654727E0,1.6743231E0,5.3084893E0,1.6768345E1,3.2907057E0,2.4610655E0,1.3765805E0,2.3888922E0,2.3227274E0,2.9857621E0,1.22765045E1,4.491839E0,2.2774315E0,1.0132743E0,1.4784899E0,1.5072721E0,7.133565E0,5.1429396E0,1.737273E0,2.754566E0],"tree_param":{"num_deleted":"0","num_feature":"7","num_nodes":"29","size_leaf_vector":"1"}},{"base_weights":[6.394896E-10,-1.3917616E-1,7.192353E-2,-1.9506696E-1,-4.7572188E-2,-9.6093975E-2,1.1615382E-1,-1.0964408E-1,-2.4320535E-2,1.9266788E-3,-8.1656486E-2,1.9968539E-3,-1.44409835E-2,2.9532332E-2,7.701076E-2,-1.3185819E-2,-1.5676443E-3,2.9899909E-3,-1.2399543E-2,3.8116466E-2,2.0501968E-1,-3.3473899E-3,1.2285174E-2,9.354551E-3,2.7099816E-2],"categories":[],"categories_nodes":[],"categories_segments":[],"categories_sizes":[],"default_left":[0,0,0,0,0,0,0,0,0,0,0,0,0,0,0,0,0,0,0,0,0,0,0,0,0],"id":13,"left_children":[1,3,5,7,9,11,13,15,-1,-1,17,-1,-1,-1,19,-1,-1,-1,-1,21,23,-1,-1,-1,-1],"loss_changes":[3.8904205E-1,5.851537E-2,2.0158151E-1,5.8256686E-3,1.6017407E-2,3.589554E-2,1.2268734E-1,7.678576E-3,0E0,0E0,2.4441777E-2,0E0,0E0,0E0,8.365258E-2,0E0,0E0,0E0,0E0,9.703783E-2,4.4570565E-3,0E0,0E0,0E0,0E0],"parents":[2147483647,0,0,1,1,2,2,3,3,4,4,5,5,6,6,7,7,10,10,14,14,19,19,20,20],"right_children":[2,4,6,8,10,12,14,16,-1,-1,18,-1,-1,-1,20,-1,-1,-1,-1,22,24,-1,-1,-1,-1],"split_conditions":[9.920734E0,9.867491E0,7.74846E0,9.7981825E0,5E-1,1.0126671E1,9.105091E0,9.828125E0,-2.4320535E-2,1.9266788E-3,0E0,1.9968539E-3,-1.44409835E-2,2.9532332E-2,1.0742443E1,-1.3185819E-2,-1.5676443E-3,2.9899909E-3,-1.2399543E-2,1.0165891E1,1.0865825E1,-3.3473899E-3,1.2285174E-2,9.354551E-3,2.7099816E-2],"split_indices":[6,6,4,5,1,5,5,6,0,0,2,0,0,0,6,0,0,0,0,5,6,0,0,0,0],"split_type":[0,0,0,0,0,0,0,0,0,0,0,0,0,0,0,0,0,0,0,0,0,0,0,0,0],"sum_hessian":[3.686518E1,1.224171E1,2.462347E1,6.90144E0,5.34027E0,4.886927E0,1.9736544E1,3.6687782E0,3.2326617E0,1.9503614E0,3.3899083E0,1.60887E0,3.2780573E0,2.3652716E0,1.7371271E1,2.641171E0,1.0276071E0,1.0134431E0,2.3764653E0,1.4318497E1,3.052775E0,8.08916E0,6.2293363E0,2.0340154E0,1.0187597E0],"tree_param":{"num_deleted":"0","num_feature":"7","num_nodes":"25","size_leaf_vector":"1"}},{"base_weights":[4.04798E-9,-1.3702561E-1,7.170136E-2,-2.6065756E-2,-8.9719415E-2,-6.371169E-2,1.1526552E-1,-1.4764096E-1,-2.8681317E-2,-1.3759394E-2,9.166748E-3,1.4982647E-2,1.7409685E-1,-1.8577158E-2,-4.505412E-3,-5.1446687E-2,2.4669038E-3,2.6168579E-3,-1.9215922E-3,1.5963865E-2,-7.824058E-2,2.0369501E-1,9.183352E-2,1.3848566E-3,-7.137111E-3,-1.3057061E-2,1.8961737E-3,1.1358405E-2,3.051494E-2,-3.7600982E-3,1.771764E-2],"categories":[],"categories_nodes":[],"categories_segments":[],"categories_sizes":[],"default_left":[0,0,0,0,0,0,0,0,0,0,0,0,0,0,0,0,0,0,0,0,0,0,0,0,0,0,0,0,0,0,0],"id":14,"left_children":[1,3,5,-1,7,9,11,13,15,-1,17,19,21,-1,-1,23,-1,-1,-1,-1,25,27,29,-1,-1,-1,-1,-1,-1,-1,-1],"loss_changes":[3.805353E-1,5.442892E-2,1.5733948E-1,0E0,3.5177544E-2,3.8053185E-2,1.12989485E-1,1.3061695E-2,9.368863E-3,0E0,2.6152094E-3,1.2494092E-1,1.1132628E-2,0E0,0E0,7.49122E-3,0E0,0E0,0E0,0E0,3.1682845E-2,4.0226072E-2,6.2595576E-2,0E0,0E0,0E0,0E0,0E0,0E0,0E0,0E0],"parents":[2147483647,0,0,1,1,2,2,4,4,5,5,6,6,7,7,8,8,10,10,11,11,12,12,15,15,20,20,21,21,22,22],"right_children":[2,4,6,-1,8,10,12,14,16,-1,18,20,22,-1,-1,24,-1,-1,-1,-1,26,28,30,-1,-1,-1,-1,-1,-1,-1,-1],"split_conditions":[9.920734E0,4.83E0,7.843064E0,-2.6065756E-2,8.014667E0,1.0455043E1,5E-1,1.5E0,4.87E0,-1.3759394E-2,1.0590266E1,8.439664E0,1.0365969E1,-1.8577158E-2,-4.505412E-3,0E0,2.4669038E-3,2.6168579E-3,-1.9215922E-3,1.5963865E-2,8.90463E0,1.01130495E1,1.0742443E1,1.3848566E-3,-7.137111E-3,-1.3057061E-2,1.8961737E-3,1.1358405E-2,3.051494E-2,-3.7600982E-3,1.771764E-2],"split_indices":[6,3,4,0,4,6,2,0,3,0,6,4,6,0,0,2,0,0,0,0,4,6,6,0,0,0,0,0,0,0,0],"split_type":[0,0,0,0,0,0,0,0,0,0,0,0,0,0,0,0,0,0,0,0,0,0,0,0,0,0,0,0,0,0,0],"sum_hessian":[3.6731632E1,1.2304993E1,2.4426641E1,2.1572194E0,1.0147774E1,5.8330245E0,1.8593616E1,4.478812E0,5.668961E0,2.4556046E0,3.3774202E0,7.3387613E0,1.1254855E1,2.674028E0,1.8047844E0,3.9984477E0,1.6705133E0,2.1609647E0,1.2164556E0,2.5968118E0,4.741949E0,7.191305E0,4.06355E0,1.0061363E0,2.9923115E0,2.8593156E0,1.8826337E0,4.9310994E0,2.2602055E0,1.8369579E0,2.2265923E0],"tree_param":{"num_deleted":"0","num_feature":"7","num_nodes":"31","size_leaf_vector":"1"}},{"base_weights":[-3.5177492E-9,-1.3458456E-1,7.1956135E-2,-2.0031942E-2,-7.0655756E-2,-6.122963E-2,1.1500367E-1,-1.4821477E-2,-2.9860593E-2,2.0935347E-2,-1.1207041E-2,2.3081552E-2,6.61871E-2,6.27167E-3,-8.970398E-3,3.0601698E-3,1.6251465E-4,-3.7798386E-2,1.3282356E-1,-2.7869842E-3,6.996208E-3,-1.2257973E-2,5.477207E-3,6.036868E-3,1.6952755E-2],"categories":[],"categories_nodes":[],"categories_segments":[],"categories_sizes":[],"default_left":[0,0,0,0,0,0,0,0,0,0,0,0,0,0,0,0,0,0,0,0,0,0,0,0,0],"id":15,"left_children":[1,3,5,-1,7,9,11,-1,13,15,-1,-1,17,19,-1,-1,-1,21,23,-1,-1,-1,-1,-1,-1],"loss_changes":[3.737557E-1,4.2350292E-2,1.5122679E-1,0E0,2.2030152E-2,3.0733218E-2,9.4136685E-2,0E0,1.5118333E-2,5.924008E-4,0E0,0E0,1.0907307E-1,1.3109365E-2,0E0,0E0,0E0,5.8851093E-2,1.4693126E-2,0E0,0E0,0E0,0E0,0E0,0E0],"parents":[2147483647,0,0,1,1,2,2,4,4,5,5,6,6,8,8,9,9,12,12,13,13,17,17,18,18],"right_children":[2,4,6,-1,8,10,12,-1,14,16,-1,-1,18,20,-1,-1,-1,22,24,-1,-1,-1,-1,-1,-1],"split_conditions":[9.920734E0,8.014667E0,7.843064E0,-2.0031942E-2,4.83E0,1.0126671E1,9.392745E0,-1.4821477E-2,9.913037E0,1.0590266E1,-1.1207041E-2,2.3081552E-2,5E-1,4.86E0,-8.970398E-3,3.0601698E-3,1.6251465E-4,1E0,9.903538E0,-2.7869842E-3,6.996208E-3,-1.2257973E-2,5.477207E-3,6.036868E-3,1.6952755E-2],"split_indices":[6,4,4,0,3,5,5,0,6,6,0,0,2,3,0,0,0,1,5,0,0,0,0,0,0],"split_type":[0,0,0,0,0,0,0,0,0,0,0,0,0,0,0,0,0,0,0,0,0,0,0,0,0],"sum_hessian":[3.659444E1,1.2445808E1,2.414863E1,5.0843472E0,7.361461E0,5.795482E0,1.8353148E1,1.6297897E0,5.7316713E0,2.4401371E0,3.3553452E0,4.3366685E0,1.40164795E1,4.132031E0,1.5996404E0,1.2364495E0,1.2036877E0,5.643158E0,8.373322E0,3.0561733E0,1.0758576E0,2.7762923E0,2.8668656E0,3.704757E0,4.668565E0],"tree_param":{"num_deleted":"0","num_feature":"7","num_nodes":"25","size_leaf_vector":"1"}},{"base_weights":[-8.614469E-9,-1.2878715E-1,6.8724446E-2,-2.4734216E-2,-8.306379E-2,6.6141956E-3,1.6415313E-1,-1.2928753E-1,-3.2027494E-2,-4.0674306E-2,9.6973486E-2,5.3580645E-2,2.2442216E-2,-1.601051E-1,-4.3413774E-3,-1.5682717E-3,-7.96866E-3,9.504475E-2,-1.376087E-1,4.7812182E-3,1.4246565E-2,7.0010074E-3,1.9357073E-3,-1.899056E-2,-5.1040086E-3,-4.6939696E-3,4.3300875E-3,1.0056953E-3,1.9612193E-2,-2.480682E-2,-6.201669E-3],"categories":[],"categories_nodes":[],"categories_segments":[],"categories_sizes":[],"default_left":[0,0,0,0,0,0,0,0,0,0,0,0,0,0,0,0,0,0,0,0,0,0,0,0,0,0,0,0,0,0,0],"id":16,"left_children":[1,3,5,-1,7,9,11,13,15,17,19,21,-1,23,-1,25,-1,27,29,-1,-1,-1,-1,-1,-1,-1,-1,-1,-1,-1,-1],"loss_changes":[3.4082675E-1,5.2086607E-2,1.4773792E-1,0E0,2.2222579E-2,7.3387094E-2,5.366555E-2,7.6966286E-3,9.514665E-3,1.6270009E-1,6.3358806E-3,1.3387036E-3,0E0,2.3363084E-3,0E0,1.2356616E-2,0E0,4.3813996E-2,4.342352E-2,0E0,0E0,0E0,0E0,0E0,0E0,0E0,0E0,0E0,0E0,0E0,0E0],"parents":[2147483647,0,0,1,1,2,2,4,4,5,5,6,6,7,7,8,8,9,9,10,10,11,11,13,13,15,15,17,17,18,18],"right_children":[2,4,6,-1,8,10,12,14,16,18,20,22,-1,24,-1,26,-1,28,30,-1,-1,-1,-1,-1,-1,-1,-1,-1,-1,-1,-1],"split_conditions":[9.920734E0,4.83E0,9.069583E0,-2.4734216E-2,8.014667E0,1.0590265E1,1.0077303E1,1.5E0,9.913037E0,1.0161447E1,5E-1,5E-1,2.2442216E-2,9.8628235E0,-4.3413774E-3,9.834761E0,-7.96866E-3,5E-1,1.0409323E1,4.7812182E-3,1.4246565E-2,7.0010074E-3,1.9357073E-3,-1.899056E-2,-5.1040086E-3,-4.6939696E-3,4.3300875E-3,1.0056953E-3,1.9612193E-2,-2.480682E-2,-6.201669E-3],"split_indices":[6,3,4,0,4,6,6,0,6,6,1,1,0,6,0,6,0,2,6,0,0,0,0,0,0,0,0,0,0,0,0],"split_type":[0,0,0,0,0,0,0,0,0,0,0,0,0,0,0,0,0,0,0,0,0,0,0,0,0,0,0,0,0,0,0],"sum_hessian":[3.6507908E1,1.2398885E1,2.4109024E1,2.2236633E0,1.0175221E1,1.5251693E1,8.857332E0,4.5347953E0,5.640426E0,1.0372974E1,4.8787174E0,3.7910724E0,5.06626E0,2.7010455E0,1.8337497E0,4.0713243E0,1.5691017E0,4.329993E0,6.042982E0,3.3305461E0,1.5481714E0,1.8549256E0,1.9361467E0,1.539252E0,1.1617936E0,2.001387E0,2.0699375E0,2.9494944E0,1.3804984E0,1.5282062E0,4.5147758E0],"tree_param":{"num_deleted":"0","num_feature":"7","num_nodes":"31","size_leaf_vector":"1"}},{"base_weights":[-1.25126345E-8,-1.2573044E-1,6.685297E-2,-1.7561898E-1,-4.3853812E-2,-7.318778E-2,1.12667926E-1,-2.5998563E-2,-1.18796684E-1,2.1094282E-3,-8.350691E-3,-1.3689987E-2,-5.9787184E-3,2.109546E-2,6.9683395E-2,-3.7865893E-3,-1.4598167E-1,5.4357587E-3,-3.5761178E-3,-2.6176444E-3,1.8375608E-3,-1.7028917E-2,1.2359998E-1,-1.8593077E-2,-5.5590793E-3,-8.887462E-3,5.9951474E-3,6.472961E-3,1.5032053E-2],"categories":[],"categories_nodes":[],"categories_segments":[],"categories_sizes":[],"default_left":[0,0,0,0,0,0,0,0,0,0,0,0,0,0,0,0,0,0,0,0,0,0,0,0,0,0,0,0,0],"id":17,"left_children":[1,3,5,7,9,11,13,-1,15,17,-1,-1,19,-1,21,-1,23,-1,-1,-1,-1,25,27,-1,-1,-1,-1,-1,-1],"loss_changes":[3.227809E-1,4.674983E-2,1.6909924E-1,7.228866E-3,1.1804236E-2,2.8240953E-2,6.677294E-2,0E0,8.975834E-3,9.720555E-3,0E0,0E0,2.6199047E-3,0E0,7.1812585E-2,0E0,6.2184483E-3,0E0,0E0,0E0,0E0,4.1805163E-2,4.922256E-3,0E0,0E0,0E0,0E0,0E0,0E0],"parents":[2147483647,0,0,1,1,2,2,3,3,4,4,5,5,6,6,8,8,9,9,12,12,14,14,16,16,21,21,22,22],"right_children":[2,4,6,8,10,12,14,-1,16,18,-1,-1,20,-1,22,-1,24,-1,-1,-1,-1,26,28,-1,-1,-1,-1,-1,-1],"split_conditions":[9.920734E0,9.867491E0,7.843064E0,4.83E0,9.913037E0,1.0455043E1,9.392745E0,-2.5998563E-2,4.86E0,5E-1,-8.350691E-3,-1.3689987E-2,1.0562662E1,2.109546E-2,5E-1,-3.7865893E-3,1.5E0,5.4357587E-3,-3.5761178E-3,-2.6176444E-3,1.8375608E-3,1.0165891E1,9.903538E0,-1.8593077E-2,-5.5590793E-3,-8.887462E-3,5.9951474E-3,6.472961E-3,1.5032053E-2],"split_indices":[6,6,4,3,6,6,5,0,3,1,0,0,6,0,2,0,0,0,0,0,0,5,5,0,0,0,0,0,0],"split_type":[0,0,0,0,0,0,0,0,0,0,0,0,0,0,0,0,0,0,0,0,0,0,0,0,0,0,0,0,0],"sum_hessian":[3.6401363E1,1.23305645E1,2.40708E1,6.950569E0,5.379996E0,5.78637E0,1.828443E1,1.3583491E0,5.59222E0,2.9302487E0,2.449747E0,2.4381523E0,3.3482177E0,4.3744063E0,1.3910024E1,2.0078044E0,3.5844154E0,1.0484312E0,1.8818176E0,1.7894006E0,1.558817E0,5.595355E0,8.314669E0,1.7527901E0,1.8316255E0,2.8142805E0,2.7810745E0,3.6642053E0,4.650463E0],"tree_param":{"num_deleted":"0","num_feature":"7","num_nodes":"29","size_leaf_vector":"1"}},{"base_weights":[9.72959E-10,-1.2381949E-1,6.560604E-2,-1.699038E-1,-4.733539E-2,-6.202883E-2,1.0691346E-1,-9.331536E-2,-2.1680085E-1,-7.382151E-2,1.8116174E-3,1.586064E-3,-1.0976537E-1,3.1517394E-2,1.4945653E-1,-1.182127E-2,-1.2610205E-4,-2.8581465E-2,-1.021091E-2,3.1809253E-4,-1.058585E-2,-1.3812343E-2,-4.3995953E-3,1.1358581E-2,-2.5462797E-2,1.6860056E-1,5.9758513E-3,-8.751228E-3,6.504615E-3,8.281159E-3,1.927512E-2],"categories":[],"categories_nodes":[],"categories_segments":[],"categories_sizes":[],"default_left":[0,0,0,0,0,0,0,0,0,0,0,0,0,0,0,0,0,0,0,0,0,0,0,0,0,0,0,0,0,0,0],"id":18,"left_children":[1,3,5,7,9,11,13,15,17,19,-1,-1,21,23,25,-1,-1,-1,-1,-1,-1,-1,-1,-1,27,29,-1,-1,-1,-1,-1],"loss_changes":[3.1137484E-1,3.8750455E-2,1.3873044E-1,8.136839E-3,1.2393454E-2,2.6872214E-2,5.7184145E-2,1.07493065E-2,3.6074072E-3,1.2023551E-2,0E0,0E0,1.9746013E-3,4.1367777E-2,1.0648489E-2,0E0,0E0,0E0,0E0,0E0,0E0,0E0,0E0,0E0,3.7552405E-2,3.5067499E-3,0E0,0E0,0E0,0E0,0E0],"parents":[2147483647,0,0,1,1,2,2,3,3,4,4,5,5,6,6,7,7,8,8,9,9,12,12,13,13,14,14,24,24,25,25],"right_children":[2,4,6,8,10,12,14,16,18,20,-1,-1,22,24,26,-1,-1,-1,-1,-1,-1,-1,-1,-1,28,30,-1,-1,-1,-1,-1],"split_conditions":[9.920734E0,9.867491E0,7.843064E0,9.7981825E0,4.87E0,1.0126671E1,5E-1,9.828125E0,4.89E0,9.880446E0,1.8116174E-3,1.586064E-3,4.88E0,8.439664E0,1.0645449E1,-1.182127E-2,-1.2610205E-4,-2.8581465E-2,-1.021091E-2,3.1809253E-4,-1.058585E-2,-1.3812343E-2,-4.3995953E-3,1.1358581E-2,8.90463E0,1.0084071E1,5.9758513E-3,-8.751228E-3,6.504615E-3,8.281159E-3,1.927512E-2],"split_indices":[6,6,4,5,3,5,2,6,3,6,0,0,3,4,5,0,0,0,0,0,0,0,0,0,4,6,0,0,0,0,0],"split_type":[0,0,0,0,0,0,0,0,0,0,0,0,0,0,0,0,0,0,0,0,0,0,0,0,0,0,0,0,0,0,0],"sum_hessian":[3.6331047E1,1.2275656E1,2.405539E1,6.8979673E0,5.3776884E0,5.759035E0,1.8296354E1,3.7551522E0,3.1428149E0,3.7374032E0,1.6402853E0,2.4421084E0,3.316927E0,7.227826E0,1.1068528E1,2.7320662E0,1.0230862E0,1.0306281E0,2.112187E0,1.3627293E0,2.3746738E0,1.5489457E0,1.7679812E0,2.5547705E0,4.6730556E0,8.396778E0,2.6717505E0,2.7920446E0,1.8810108E0,2.817453E0,5.579325E0],"tree_param":{"num_deleted":"0","num_feature":"7","num_nodes":"31","size_leaf_vector":"1"}},{"base_weights":[2.8732856E-9,-1.2225038E-1,6.4554E-2,-2.291909E-2,-8.041033E-2,1.8076649E-2,2.4057228E-2,-1.31699955E-2,-2.6049087E-2,-2.8844278E-2,1.0634646E-1,3.3586149E-3,-7.3377774E-3,-7.955773E-2,9.640755E-2,4.67377E-2,1.5047063E-2,-3.4113636E-3,4.8864274E-3,-1.178226E-2,6.878557E-3,1.6562942E-2,3.7725837E-5,7.0792325E-3,7.9011446E-4],"categories":[],"categories_nodes":[],"categories_segments":[],"categories_sizes":[],"default_left":[0,0,0,0,0,0,0,0,0,0,0,0,0,0,0,0,0,0,0,0,0,0,0,0,0],"id":19,"left_children":[1,3,5,-1,7,-1,9,-1,11,13,15,17,-1,19,21,23,-1,-1,-1,-1,-1,-1,-1,-1,-1],"loss_changes":[3.0205777E-1,4.075238E-2,1.1353474E-1,0E0,2.7371831E-2,0E0,8.895185E-2,0E0,9.446086E-3,8.894592E-2,1.3833888E-2,1.0249084E-2,0E0,6.291318E-2,2.7456287E-2,3.948326E-3,0E0,0E0,0E0,0E0,0E0,0E0,0E0,0E0,0E0],"parents":[2147483647,0,0,1,1,2,2,4,4,6,6,8,8,9,9,10,10,11,11,13,13,14,14,15,15],"right_children":[2,4,6,-1,8,-1,10,-1,12,14,16,18,-1,20,22,24,-1,-1,-1,-1,-1,-1,-1,-1,-1],"split_conditions":[9.920734E0,4.83E0,9.392745E0,-2.291909E-2,8.014667E0,1.8076649E-2,9.069583E0,-1.31699955E-2,9.913037E0,1.0545368E1,1.0077303E1,8.45084E0,-7.3377774E-3,1.0590265E1,4.86E0,5E-1,1.5047063E-2,-3.4113636E-3,4.8864274E-3,-1.178226E-2,6.878557E-3,1.6562942E-2,3.7725837E-5,7.0792325E-3,7.9011446E-4],"split_indices":[6,3,5,0,4,0,4,0,6,5,6,4,0,6,3,1,0,0,0,0,0,0,0,0,0],"split_type":[0,0,0,0,0,0,0,0,0,0,0,0,0,0,0,0,0,0,0,0,0,0,0,0,0],"sum_hessian":[3.627513E1,1.2226739E1,2.4048393E1,2.1791587E0,1.004758E1,5.319485E0,1.8728909E1,4.437827E0,5.609753E0,1.1795426E1,6.9334817E0,4.032928E0,1.5768251E0,8.655643E0,3.1397824E0,3.8251693E0,3.1083121E0,2.3489754E0,1.6839526E0,7.044319E0,1.6113243E0,1.4034015E0,1.736381E0,1.8540063E0,1.9711632E0],"tree_param":{"num_deleted":"0","num_feature":"7","num_nodes":"25","size_leaf_vector":"1"}},{"base_weights":[-6.998725E-9,-1.21193305E-1,6.4108066E-2,-2.1406671E-2,-8.352686E-2,-5.6238815E-2,1.0269567E-1,-1.3135424E-1,-3.1401757E-2,1.680105E-2,-1.0101515E-1,1.8747143E-1,6.480576E-2,-1.5983751E-2,-4.956272E-3,4.9427623E-4,-8.091884E-3,2.817323E-3,-2.1386077E-4,-1.2478023E-2,-4.2827125E-3,7.4653276E-3,2.4448207E-2,-5.046176E-3,1.1935092E-1,-3.4021703E-3,3.4585984E-3,7.6263393E-3,-1.0652094E-2,2.328912E-3,1.4340073E-2],"categories":[],"categories_nodes":[],"categories_segments":[],"categories_sizes":[],"default_left":[0,0,0,0,0,0,0,0,0,0,0,0,0,0,0,0,0,0,0,0,0,0,0,0,0,0,0,0,0,0,0],"id":20,"left_children":[1,3,5,-1,7,9,11,13,15,17,19,21,23,-1,-1,25,-1,-1,-1,-1,-1,-1,-1,27,29,-1,-1,-1,-1,-1,-1],"loss_changes":[2.967405E-1,2.8343484E-2,1.2177821E-1,0E0,2.3399845E-2,2.3644984E-2,4.97445E-2,4.7598183E-3,1.045955E-2,7.9426315E-4,6.064363E-4,1.6631946E-2,5.716347E-2,0E0,0E0,7.0678145E-3,0E0,0E0,0E0,0E0,0E0,0E0,0E0,6.974665E-2,1.6012184E-2,0E0,0E0,0E0,0E0,0E0,0E0],"parents":[2147483647,0,0,1,1,2,2,4,4,5,5,6,6,7,7,8,8,9,9,10,10,11,11,12,12,15,15,23,23,24,24],"right_children":[2,4,6,-1,8,10,12,14,16,18,20,22,24,-1,-1,26,-1,-1,-1,-1,-1,-1,-1,28,30,-1,-1,-1,-1,-1,-1],"split_conditions":[9.920734E0,4.83E0,7.843064E0,-2.1406671E-2,8.014667E0,1.0126671E1,9.392745E0,1.5E0,9.913037E0,1.0590266E1,1E0,1.0217869E1,1.0165891E1,-1.5983751E-2,-4.956272E-3,9.834761E0,-8.091884E-3,2.817323E-3,-2.1386077E-4,-1.2478023E-2,-4.2827125E-3,7.4653276E-3,2.4448207E-2,9.7981825E0,1.0077303E1,-3.4021703E-3,3.4585984E-3,7.6263393E-3,-1.0652094E-2,2.328912E-3,1.4340073E-2],"split_indices":[6,3,4,0,4,5,5,0,6,6,0,6,5,0,0,6,0,0,0,0,0,0,0,5,6,0,0,0,0,0,0],"split_type":[0,0,0,0,0,0,0,0,0,0,0,0,0,0,0,0,0,0,0,0,0,0,0,0,0,0,0,0,0,0,0],"sum_hessian":[3.6193153E1,1.2213552E1,2.39796E1,2.1728299E0,1.0040723E1,5.7109327E0,1.8268667E1,4.443557E0,5.5971656E0,2.4079025E0,3.3030303E0,4.423541E0,1.3845127E1,2.5880735E0,1.8554835E0,4.0064564E0,1.5907092E0,1.1999035E0,1.207999E0,1.53264E0,1.7703902E0,2.2602339E0,2.1633072E0,6.4686685E0,7.376458E0,1.9918606E0,2.014596E0,3.7290833E0,2.7395854E0,1.8711041E0,5.505354E0],"tree_param":{"num_deleted":"0","num_feature":"7","num_nodes":"31","size_leaf_vector":"1"}},{"base_weights":[1.1540988E-8,-1.17159426E-1,6.194006E-2,-1.746298E-2,-6.139132E-2,-6.0641743E-2,1.01370506E-1,-1.1950593E-2,-2.8539447E-2,6.551206E-3,-9.897198E-2,2.6379574E-2,1.4453913E-1,6.9576426E-4,-7.4381786E-3,5.1581952E-5,9.559911E-4,-1.2411997E-2,-3.9832457E-3,1.318299E-2,-2.0643592E-2,5.3749923E-3,1.5652585E-1,-3.590389E-3,3.7184374E-3,3.1318308E-3,-1.0427929E-2,1.8777508E-2,8.7455325E-3],"categories":[],"categories_nodes":[],"categories_segments":[],"categories_sizes":[],"default_left":[0,0,0,0,0,0,0,0,0,0,0,0,0,0,0,0,0,0,0,0,0,0,0,0,0,0,0,0,0],"id":21,"left_children":[1,3,5,-1,7,9,11,-1,13,15,17,19,21,23,-1,-1,-1,-1,-1,-1,25,-1,27,-1,-1,-1,-1,-1,-1],"loss_changes":[2.766359E-1,3.1533137E-2,1.2667874E-1,0E0,1.2307743E-2,1.7891055E-2,5.8478653E-2,0E0,8.861624E-3,5.625897E-5,1.488436E-3,4.364579E-2,4.633844E-3,8.018438E-3,0E0,0E0,0E0,0E0,0E0,0E0,3.182907E-2,0E0,5.3080916E-3,0E0,0E0,0E0,0E0,0E0,0E0],"parents":[2147483647,0,0,1,1,2,2,4,4,5,5,6,6,8,8,9,9,10,10,11,11,12,12,13,13,20,20,22,22],"right_children":[2,4,6,-1,8,10,12,-1,14,16,18,20,22,24,-1,-1,-1,-1,-1,-1,26,-1,28,-1,-1,-1,-1,-1,-1],"split_conditions":[9.920734E0,8.014667E0,7.843064E0,-1.746298E-2,4.83E0,1.0126671E1,5E-1,-1.1950593E-2,9.913037E0,1.0590266E1,4.88E0,8.088255E0,1.0033405E1,4.85E0,-7.4381786E-3,5.1581952E-5,9.559911E-4,-1.2411997E-2,-3.9832457E-3,1.318299E-2,1.0097676E1,5.3749923E-3,1.0365969E1,-3.590389E-3,3.7184374E-3,3.1318308E-3,-1.0427929E-2,1.8777508E-2,8.7455325E-3],"split_indices":[6,4,4,0,3,5,2,0,6,6,3,4,6,3,0,0,0,0,0,0,6,0,6,0,0,0,0,0,0],"split_type":[0,0,0,0,0,0,0,0,0,0,0,0,0,0,0,0,0,0,0,0,0,0,0,0,0,0,0,0,0],"sum_hessian":[3.6120598E1,1.2183687E1,2.393691E1,4.9506106E0,7.233077E0,5.694827E0,1.8242085E1,1.6595788E0,5.5734982E0,2.3697455E0,3.3250818E0,7.2531924E0,1.0988892E1,4.00451E0,1.5689888E0,1.1780496E0,1.1916959E0,1.5620735E0,1.7630084E0,1.6806943E0,5.572498E0,1.9212415E0,9.06765E0,2.007213E0,1.9972967E0,3.822908E0,1.7495899E0,5.0598497E0,4.0078E0],"tree_param":{"num_deleted":"0","num_feature":"7","num_nodes":"29","size_leaf_vector":"1"}},{"base_weights":[-1.34111815E-8,-1.1228766E-1,5.9233077E-2,-1.5567206E-1,-4.018248E-2,-5.6421444E-2,9.645107E-2,-8.398381E-2,-1.9981813E-2,-6.265279E-2,1.5905207E-3,8.508106E-4,-9.460183E-2,1.8221498E-1,5.893239E-2,-1.1065739E-2,-3.010324E-3,3.5988996E-4,-9.056247E-3,-1.1791698E-2,-3.9087487E-3,6.9757164E-3,2.1891883E-2,-9.124947E-3,1.12995334E-1,-8.846002E-3,9.343497E-3,2.5441933E-3,1.343362E-2],"categories":[],"categories_nodes":[],"categories_segments":[],"categories_sizes":[],"default_left":[0,0,0,0,0,0,0,0,0,0,0,0,0,0,0,0,0,0,0,0,0,0,0,0,0,0,0,0,0],"id":22,"left_children":[1,3,5,7,9,11,13,15,-1,17,-1,-1,19,21,23,-1,-1,-1,-1,-1,-1,-1,-1,25,27,-1,-1,-1,-1],"loss_changes":[2.531798E-1,3.4867287E-2,1.1270826E-1,8.091703E-3,8.9190025E-3,1.740919E-2,5.111353E-2,3.4529231E-3,0E0,8.999072E-3,0E0,0E0,9.5684826E-4,6.901875E-3,5.567081E-2,0E0,0E0,0E0,0E0,0E0,0E0,0E0,0E0,6.928586E-2,1.2185283E-2,0E0,0E0,0E0,0E0],"parents":[2147483647,0,0,1,1,2,2,3,3,4,4,5,5,6,6,7,7,9,9,12,12,13,13,14,14,23,23,24,24],"right_children":[2,4,6,8,10,12,14,16,-1,18,-1,-1,20,22,24,-1,-1,-1,-1,-1,-1,-1,-1,26,28,-1,-1,-1,-1],"split_conditions":[9.920734E0,9.867491E0,7.843064E0,9.7981825E0,4.87E0,1.0126671E1,9.392745E0,4.85E0,-1.9981813E-2,9.880446E0,1.5905207E-3,8.508106E-4,5E-1,1.0113049E1,1.0165891E1,-1.1065739E-2,-3.010324E-3,3.5988996E-4,-9.056247E-3,-1.1791698E-2,-3.9087487E-3,6.9757164E-3,2.1891883E-2,9.069583E0,1.0077303E1,-8.846002E-3,9.343497E-3,2.5441933E-3,1.343362E-2],"split_indices":[6,6,4,5,3,5,5,3,0,6,0,0,1,6,5,0,0,0,0,0,0,0,0,4,6,0,0,0,0],"split_type":[0,0,0,0,0,0,0,0,0,0,0,0,0,0,0,0,0,0,0,0,0,0,0,0,0,0,0,0,0],"sum_hessian":[3.6065598E1,1.2145599E1,2.3919996E1,6.85944E0,5.2861595E0,5.6978903E0,1.8222107E1,3.7203755E0,3.139064E0,3.6905642E0,1.5955951E0,2.3976345E0,3.3002558E0,4.371851E0,1.3850256E1,1.783634E0,1.9367416E0,1.352075E0,2.3384893E0,1.5325348E0,1.7677209E0,1.7894995E0,2.5823512E0,6.499523E0,7.350733E0,3.742217E0,2.757306E0,1.870198E0,5.480535E0],"tree_param":{"num_deleted":"0","num_feature":"7","num_nodes":"29","size_leaf_vector":"1"}},{"base_weights":[-5.498883E-9,-1.1145813E-1,5.8777984E-2,-2.1269184E-2,-7.149488E-2,-5.817974E-2,9.6435845E-2,-1.09251395E-1,-2.887674E-2,-1.2142672E-2,-1.5129063E-2,1.7990543E-1,5.9778966E-2,-1.3131312E-2,-4.2871367E-3,7.278307E-4,-7.4946755E-3,-3.6284288E-3,2.1643385E-3,8.147552E-3,2.144519E-2,-1.1281896E-2,1.03768036E-1,-3.542343E-3,3.6514818E-3,3.5589193E-3,-9.030923E-3,6.105532E-3,1.3230785E-2],"categories":[],"categories_nodes":[],"categories_segments":[],"categories_sizes":[],"default_left":[0,0,0,0,0,0,0,0,0,0,0,0,0,0,0,0,0,0,0,0,0,0,0,0,0,0,0,0,0],"id":23,"left_children":[1,3,5,-1,7,9,11,13,15,-1,17,19,21,-1,-1,23,-1,-1,-1,-1,-1,25,27,-1,-1,-1,-1,-1,-1],"loss_changes":[2.4899086E-1,3.7882805E-2,1.1520834E-1,0E0,1.4408376E-2,1.6363285E-2,4.7990665E-2,2.3198575E-3,8.901501E-3,0E0,4.7679367E-3,7.57426E-4,4.7553845E-2,0E0,0E0,7.6837516E-3,0E0,0E0,0E0,0E0,0E0,2.7569724E-2,3.2135993E-3,0E0,0E0,0E0,0E0,0E0,0E0],"parents":[2147483647,0,0,1,1,2,2,4,4,5,5,6,6,7,7,8,8,10,10,11,11,12,12,15,15,21,21,22,22],"right_children":[2,4,6,-1,8,10,12,14,16,-1,18,20,22,-1,-1,24,-1,-1,-1,-1,-1,26,28,-1,-1,-1,-1,-1,-1],"split_conditions":[9.920734E0,4.83E0,7.843064E0,-2.1269184E-2,8.014667E0,5.42495E0,9.392745E0,1.5E0,9.913037E0,-1.2142672E-2,1.0562662E1,1.0161448E1,5E-1,-1.3131312E-2,-4.2871367E-3,9.834761E0,-7.4946755E-3,-3.6284288E-3,2.1643385E-3,8.147552E-3,2.144519E-2,1.0097676E1,1.0239996E1,-3.542343E-3,3.6514818E-3,3.5589193E-3,-9.030923E-3,6.105532E-3,1.3230785E-2],"split_indices":[6,3,4,0,4,4,5,0,6,0,6,6,2,0,0,6,0,0,0,0,0,6,5,0,0,0,0,0,0],"split_type":[0,0,0,0,0,0,0,0,0,0,0,0,0,0,0,0,0,0,0,0,0,0,0,0,0,0,0,0,0],"sum_hessian":[3.600642E1,1.2122602E1,2.3883818E1,2.2077675E0,9.914835E0,5.6843657E0,1.8199451E1,4.4282436E0,5.486592E0,1.5648488E0,4.119517E0,4.3611245E0,1.3838326E1,2.589432E0,1.8388116E0,3.9393613E0,1.5472304E0,2.6234937E0,1.4960232E0,2.0054946E0,2.35563E0,5.5753384E0,8.262988E0,1.9647608E0,1.9746007E0,3.8447046E0,1.7306336E0,4.567126E0,3.6958625E0],"tree_param":{"num_deleted":"0","num_feature":"7","num_nodes":"29","size_leaf_vector":"1"}},{"base_weights":[2.3562543E-9,-1.08053096E-1,5.6836993E-2,-2.1684723E-2,-7.4232094E-2,-5.4743815E-2,9.269994E-2,-1.1240787E-1,-3.720161E-2,5.9930272E-3,-8.983089E-2,1.7367028E-1,5.7348624E-2,-3.6497766E-3,-1.6759528E-2,5.8166245E-3,-6.704267E-2,-1.05351E-4,1.0213602E-3,-1.0969503E-2,-3.8399864E-3,7.367657E-3,2.0376815E-2,-4.6600285E-3,1.0651637E-1,-8.1994495E-4,1.6106999E-3,-8.810132E-3,-9.608469E-4,-8.020576E-3,9.1370735E-3,5.559012E-3,1.5224883E-2],"categories":[],"categories_nodes":[],"categories_segments":[],"categories_sizes":[],"default_left":[0,0,0,0,0,0,0,0,0,0,0,0,0,0,0,0,0,0,0,0,0,0,0,0,0,0,0,0,0,0,0,0,0],"id":24,"left_children":[1,3,5,-1,7,9,11,13,15,17,19,21,23,-1,-1,25,27,-1,-1,-1,-1,-1,-1,29,31,-1,-1,-1,-1,-1,-1,-1,-1],"loss_changes":[2.3310588E-1,3.2043785E-2,1.0460684E-1,0E0,1.2077145E-2,1.4770977E-2,4.498236E-2,1.5534908E-2,9.803203E-3,1.11369256E-4,1.7635152E-4,1.0593385E-3,4.5783687E-2,0E0,0E0,6.9795543E-4,4.4865347E-3,0E0,0E0,0E0,0E0,0E0,0E0,6.1936688E-2,1.0929339E-2,0E0,0E0,0E0,0E0,0E0,0E0,0E0,0E0],"parents":[2147483647,0,0,1,1,2,2,4,4,5,5,6,6,7,7,8,8,9,9,10,10,11,11,12,12,15,15,16,16,23,23,24,24],"right_children":[2,4,6,-1,8,10,12,14,16,18,20,22,24,-1,-1,26,28,-1,-1,-1,-1,-1,-1,30,32,-1,-1,-1,-1,-1,-1,-1,-1],"split_conditions":[9.920734E0,9.741801E0,7.843064E0,-2.1684723E-2,8.014667E0,1.0126671E1,9.392745E0,9.818003E0,5E-1,1.0590266E1,4.88E0,1.0113049E1,1.0165891E1,-3.6497766E-3,-1.6759528E-2,8.413387E0,1E0,-1.05351E-4,1.0213602E-3,-1.0969503E-2,-3.8399864E-3,7.367657E-3,2.0376815E-2,9.069583E0,1E0,-8.1994495E-4,1.6106999E-3,-8.810132E-3,-9.608469E-4,-8.020576E-3,9.1370735E-3,5.559012E-3,1.5224883E-2],"split_indices":[6,6,4,0,4,5,5,6,1,6,3,6,5,0,0,4,1,0,0,0,0,0,0,4,0,0,0,0,0,0,0,0,0],"split_type":[0,0,0,0,0,0,0,0,0,0,0,0,0,0,0,0,0,0,0,0,0,0,0,0,0,0,0,0,0,0,0,0,0],"sum_hessian":[3.5956394E1,1.20834255E1,2.3872969E1,1.5822117E0,1.0501214E1,5.678601E0,1.8194368E1,4.1683717E0,6.332842E0,2.3829076E0,3.295693E0,4.3403435E0,1.3854025E1,2.4541032E0,1.7142686E0,2.9234865E0,3.4093556E0,1.1737082E0,1.2091994E0,1.5602304E0,1.7354625E0,1.8018813E0,2.5384622E0,6.5272746E0,7.3267503E0,1.3237101E0,1.5997763E0,2.1039689E0,1.3053868E0,3.7455254E0,2.781749E0,4.514781E0,2.8119693E0],"tree_param":{"num_deleted":"0","num_feature":"7","num_nodes":"33","size_leaf_vector":"1"}},{"base_weights":[4.290581E-10,-1.0598983E-1,5.554805E-2,-1.9999323E-2,-6.837791E-2,-5.5189498E-2,9.1187164E-2,-8.543444E-2,1.9209487E-3,-7.89833E-2,1.6250241E-3,1.691911E-2,5.6974508E-2,-2.2230772E-2,-1.1675704E-2,-9.487155E-3,-3.0964126E-3,-2.388331E-3,1.03745565E-1,-3.335844E-3,1.1780656E-4,-7.0811003E-3,8.439923E-3,1.8039115E-3,1.2559423E-2],"categories":[],"categories_nodes":[],"categories_segments":[],"categories_sizes":[],"default_left":[0,0,0,0,0,0,0,0,0,0,0,0,0,0,0,0,0,0,0,0,0,0,0,0,0],"id":25,"left_children":[1,3,5,-1,7,9,11,13,-1,15,-1,-1,17,19,-1,-1,-1,21,23,-1,-1,-1,-1,-1,-1],"loss_changes":[2.2314063E-1,3.2404542E-2,1.03175096E-1,0E0,1.7817456E-2,1.2634292E-2,4.1573316E-2,1.5709981E-2,0E0,1.0143295E-3,0E0,0E0,4.147021E-2,1.1591741E-3,0E0,0E0,0E0,5.063379E-2,1.3326883E-2,0E0,0E0,0E0,0E0,0E0,0E0],"parents":[2147483647,0,0,1,1,2,2,4,4,5,5,6,6,7,7,9,9,12,12,13,13,17,17,18,18],"right_children":[2,4,6,-1,8,10,12,14,-1,16,-1,-1,18,20,-1,-1,-1,22,24,-1,-1,-1,-1,-1,-1],"split_conditions":[9.920734E0,4.83E0,7.843064E0,-1.9999323E-2,9.752606E0,1.0562662E1,9.392745E0,9.392745E0,1.9209487E-3,5E-1,1.6250241E-3,1.691911E-2,1.0165891E1,8.348301E0,-1.1675704E-2,-9.487155E-3,-3.0964126E-3,9.069583E0,1.0077303E1,-3.335844E-3,1.1780656E-4,-7.0811003E-3,8.439923E-3,1.8039115E-3,1.2559423E-2],"split_indices":[6,3,4,0,4,6,5,5,0,1,0,0,5,4,0,0,0,4,6,0,0,0,0,0,0],"split_type":[0,0,0,0,0,0,0,0,0,0,0,0,0,0,0,0,0,0,0,0,0,0,0,0,0],"sum_hessian":[3.5900562E1,1.2032869E1,2.3867691E1,2.204896E0,9.827973E0,5.677633E0,1.8190058E1,8.246629E0,1.5813448E0,4.179883E0,1.49775E0,4.342956E0,1.3847102E1,3.2991812E0,4.947448E0,2.4075785E0,1.7723043E0,6.5203137E0,7.3267884E0,1.9480948E0,1.3510863E0,3.748842E0,2.7714715E0,1.8592172E0,5.4675713E0],"tree_param":{"num_deleted":"0","num_feature":"7","num_nodes":"25","size_leaf_vector":"1"}},{"base_weights":[-2.6030462E-9,-1.05100185E-1,5.5009186E-2,-1.456073E-1,-3.7460383E-2,-7.863897E-2,8.357227E-2,-7.802647E-2,-1.8914279E-2,2.657686E-3,-6.9880605E-2,-1.0683706E-2,-3.3046731E-3,6.130483E-2,1.9621655E-2,-1.0543252E-2,-2.6488842E-3,-7.684115E-4,-8.64461E-3,1.0694046E-1,-2.8581504E-2,4.067669E-3,1.9669555E-2,-9.882904E-3,3.396269E-3],"categories":[],"categories_nodes":[],"categories_segments":[],"categories_sizes":[],"default_left":[0,0,0,0,0,0,0,0,0,0,0,0,0,0,0,0,0,0,0,0,0,0,0,0,0],"id":26,"left_children":[1,3,5,7,9,11,13,15,-1,-1,17,-1,-1,19,-1,-1,-1,-1,-1,21,23,-1,-1,-1,-1],"loss_changes":[2.1883768E-1,3.0177116E-2,1.0142221E-1,8.153513E-3,1.476515E-2,2.75651E-3,4.053594E-2,3.920976E-3,0E0,0E0,3.8724244E-3,0E0,0E0,8.0797665E-2,0E0,0E0,0E0,0E0,0E0,6.801394E-2,3.4862675E-2,0E0,0E0,0E0,0E0],"parents":[2147483647,0,0,1,1,2,2,3,3,4,4,5,5,6,6,7,7,10,10,13,13,19,19,20,20],"right_children":[2,4,6,8,10,12,14,16,-1,-1,18,-1,-1,20,-1,-1,-1,-1,-1,22,24,-1,-1,-1,-1],"split_conditions":[9.920734E0,9.867491E0,7.5294065E0,9.7981825E0,5E-1,4.88E0,1.0756067E1,9.818003E0,-1.8914279E-2,2.657686E-3,0E0,-1.0683706E-2,-3.3046731E-3,1.0365969E1,1.9621655E-2,-1.0543252E-2,-2.6488842E-3,-7.684115E-4,-8.64461E-3,1.0084071E1,1.0590265E1,4.067669E-3,1.9669555E-2,-9.882904E-3,3.396269E-3],"split_indices":[6,6,4,5,1,3,6,6,0,0,2,0,0,6,0,0,0,0,0,6,6,0,0,0,0],"split_type":[0,0,0,0,0,0,0,0,0,0,0,0,0,0,0,0,0,0,0,0,0,0,0,0,0],"sum_hessian":[3.5851524E1,1.20047455E1,2.3846779E1,6.787352E0,5.2173934E0,3.8903697E0,1.995641E1,3.7532988E0,3.0340533E0,1.8141927E0,3.4032009E0,1.5737274E0,2.3166423E0,1.795192E1,2.0044892E0,1.7676052E0,1.9856935E0,1.0236576E0,2.3795433E0,1.1780954E1,6.1709657E0,7.61339E0,4.167565E0,2.6332455E0,3.5377202E0],"tree_param":{"num_deleted":"0","num_feature":"7","num_nodes":"25","size_leaf_vector":"1"}},{"base_weights":[1.5756949E-9,-1.02118894E-1,5.349481E-2,-1.9110228E-1,-6.624645E-2,-8.001486E-2,8.226942E-2,-2.270513E-2,-6.0164076E-3,-1.0758013E-1,-2.1548662E-2,-1.0945908E-2,-3.339002E-3,1.438862E-2,5.238327E-2,-1.29028205E-2,-4.354646E-3,3.8803357E-3,-6.307676E-3,-1.1704898E-3,1.00478426E-1,-2.9805084E-3,3.6640067E-3,-5.134678E-3,7.469387E-3,5.096728E-3,1.455717E-2],"categories":[],"categories_nodes":[],"categories_segments":[],"categories_sizes":[],"default_left":[0,0,0,0,0,0,0,0,0,0,0,0,0,0,0,0,0,0,0,0,0,0,0,0,0,0,0],"id":27,"left_children":[1,3,5,7,9,11,13,-1,-1,15,17,-1,-1,-1,19,-1,-1,21,-1,23,25,-1,-1,-1,-1,-1,-1],"loss_changes":[2.064578E-1,2.881141E-2,1.0186104E-1,1.4126077E-3,1.7616332E-2,3.0781254E-3,3.0943826E-2,0E0,0E0,1.7364025E-3,7.0396513E-3,0E0,0E0,0E0,4.0411558E-2,0E0,0E0,6.535549E-3,0E0,3.5774313E-2,1.1007696E-2,0E0,0E0,0E0,0E0,0E0,0E0],"parents":[2147483647,0,0,1,1,2,2,3,3,4,4,5,5,6,6,9,9,10,10,14,14,17,17,19,19,20,20],"right_children":[2,4,6,8,10,12,14,-1,-1,16,18,-1,-1,-1,20,-1,-1,22,-1,24,26,-1,-1,-1,-1,-1,-1],"split_conditions":[9.920734E0,4.83E0,7.5294065E0,9.834762E0,8.014667E0,1E0,9.392745E0,-2.270513E-2,-6.0164076E-3,1.5E0,9.913037E0,-1.0945908E-2,-3.339002E-3,1.438862E-2,1.0165891E1,-1.29028205E-2,-4.354646E-3,9.834761E0,-6.307676E-3,9.069583E0,1E0,-2.9805084E-3,3.6640067E-3,-5.134678E-3,7.469387E-3,5.096728E-3,1.455717E-2],"split_indices":[6,3,4,6,4,0,5,0,0,0,6,0,0,0,5,0,0,6,0,4,0,0,0,0,0,0,0],"split_type":[0,0,0,0,0,0,0,0,0,0,0,0,0,0,0,0,0,0,0,0,0,0,0,0,0,0,0],"sum_hessian":[3.5793182E1,1.1992038E1,2.3801146E1,2.202171E0,9.789866E0,3.9044347E0,1.9896711E1,1.1518869E0,1.0502843E0,4.355418E0,5.4344482E0,1.567121E0,2.3373137E0,5.252685E0,1.4644026E1,2.5022764E0,1.853142E0,3.932818E0,1.5016305E0,7.390452E0,7.253574E0,1.9834812E0,1.9493368E0,4.6428633E0,2.7475886E0,4.472813E0,2.7807608E0],"tree_param":{"num_deleted":"0","num_feature":"7","num_nodes":"27","size_leaf_vector":"1"}},{"base_weights":[-1.8665565E-8,-1.00699835E-1,5.2458867E-2,-1.9206071E-2,-6.4620376E-2,-5.716515E-2,8.7976895E-2,-1.0533401E-2,-2.0748751E-2,2.4034969E-4,-8.7589316E-2,2.6482461E-2,1.2313845E-1,4.829797E-3,-6.2833815E-3,-3.9097442E-5,7.62817E-5,-1.09848045E-2,-3.6048933E-3,1.0678427E-2,-2.7904285E-2,3.0694713E-3,1.376723E-1,-2.8491055E-3,3.7408997E-3,-7.8087263E-3,4.916305E-3,1.6293885E-2,4.965335E-3],"categories":[],"categories_nodes":[],"categories_segments":[],"categories_sizes":[],"default_left":[0,0,0,0,0,0,0,0,0,0,0,0,0,0,0,0,0,0,0,0,0,0,0,0,0,0,0,0,0],"id":28,"left_children":[1,3,5,-1,7,9,11,-1,13,15,17,19,21,23,-1,-1,-1,-1,-1,-1,25,-1,27,-1,-1,-1,-1,-1,-1],"loss_changes":[1.9940671E-1,3.020662E-2,1.0166399E-1,0E0,1.7061982E-2,1.168704E-2,3.812237E-2,0E0,7.227431E-3,1.3903851E-6,1.0517538E-3,3.8951114E-2,1.176624E-2,6.4168004E-3,0E0,0E0,0E0,0E0,0E0,0E0,2.5896763E-2,0E0,1.4145941E-2,0E0,0E0,0E0,0E0,0E0,0E0],"parents":[2147483647,0,0,1,1,2,2,4,4,5,5,6,6,8,8,9,9,10,10,11,11,12,12,13,13,20,20,22,22],"right_children":[2,4,6,-1,8,10,12,-1,14,16,18,20,22,24,-1,-1,-1,-1,-1,-1,26,-1,28,-1,-1,-1,-1,-1,-1],"split_conditions":[9.920734E0,4.83E0,7.843064E0,-1.9206071E-2,8.014667E0,1.0126671E1,5E-1,-1.0533401E-2,9.913037E0,1.0590266E1,5E-1,8.439664E0,1.0033405E1,4.85E0,-6.2833815E-3,-3.9097442E-5,7.62817E-5,-1.09848045E-2,-3.6048933E-3,1.0678427E-2,8.90463E0,3.0694713E-3,1.0645449E1,-2.8491055E-3,3.7408997E-3,-7.8087263E-3,4.916305E-3,1.6293885E-2,4.965335E-3],"split_indices":[6,3,4,0,4,5,2,0,6,6,1,4,6,3,0,0,0,0,0,0,4,0,5,0,0,0,0,0,0],"split_type":[0,0,0,0,0,0,0,0,0,0,0,0,0,0,0,0,0,0,0,0,0,0,0,0,0,0,0,0,0],"sum_hessian":[3.5747833E1,1.1929133E1,2.3818699E1,2.1532853E0,9.775848E0,5.6795816E0,1.8139118E1,4.343783E0,5.4320655E0,2.311068E0,3.3685133E0,7.2364225E0,1.0902696E1,3.9292035E0,1.502862E0,1.1604788E0,1.1505893E0,1.5624416E0,1.8060718E0,2.5330136E0,4.7034087E0,1.9040139E0,8.998681E0,2.0045273E0,1.9246761E0,2.8405373E0,1.8628715E0,6.330331E0,2.668351E0],"tree_param":{"num_deleted":"0","num_feature":"7","num_nodes":"29","size_leaf_vector":"1"}},{"base_weights":[-3.7206025E-9,-9.9185586E-2,5.1686767E-2,-1.3953424E-1,-3.307826E-2,-4.8235707E-2,8.3865136E-2,-7.612376E-2,-1.8025994E-2,1.6707679E-3,-5.7305913E-2,1.4558564E-3,-8.489461E-2,1.5869658E-1,5.0699454E-2,-8.760156E-3,-1.6751419E-3,-2.2806025E-4,-7.329429E-3,-1.080796E-2,-3.2690603E-3,7.4086883E-3,1.946914E-2,-7.5234366E-3,9.70882E-2,-6.575691E-3,6.767474E-3,2.0810931E-3,1.1602513E-2],"categories":[],"categories_nodes":[],"categories_segments":[],"categories_sizes":[],"default_left":[0,0,0,0,0,0,0,0,0,0,0,0,0,0,0,0,0,0,0,0,0,0,0,0,0,0,0,0,0],"id":29,"left_children":[1,3,5,7,9,11,13,15,-1,-1,17,-1,19,21,23,-1,-1,-1,-1,-1,-1,-1,-1,25,27,-1,-1,-1,-1],"loss_changes":[1.9328463E-1,2.983673E-2,8.3741106E-2,6.188765E-3,8.443387E-3,1.6595809E-2,3.9391026E-2,1.7669667E-3,0E0,0E0,3.70418E-3,0E0,1.7431676E-3,2.0225942E-3,4.046945E-2,0E0,0E0,0E0,0E0,0E0,0E0,0E0,0E0,3.7085064E-2,9.517767E-3,0E0,0E0,0E0,0E0],"parents":[2147483647,0,0,1,1,2,2,3,3,4,4,5,5,6,6,7,7,10,10,12,12,13,13,14,14,23,23,24,24],"right_children":[2,4,6,8,10,12,14,16,-1,-1,18,-1,20,22,24,-1,-1,-1,-1,-1,-1,-1,-1,26,28,-1,-1,-1,-1],"split_conditions":[9.920734E0,9.867491E0,7.843064E0,9.7981825E0,5E-1,1.0126671E1,9.392745E0,9.828125E0,-1.8025994E-2,1.6707679E-3,0E0,1.4558564E-3,4.88E0,1.0217869E1,1.0165891E1,-8.760156E-3,-1.6751419E-3,-2.2806025E-4,-7.329429E-3,-1.080796E-2,-3.2690603E-3,7.4086883E-3,1.946914E-2,9.069583E0,1.0077303E1,-6.575691E-3,6.767474E-3,2.0810931E-3,1.1602513E-2],"split_indices":[6,6,4,5,1,5,5,6,0,0,2,0,3,6,5,0,0,0,0,0,0,0,0,4,6,0,0,0,0],"split_type":[0,0,0,0,0,0,0,0,0,0,0,0,0,0,0,0,0,0,0,0,0,0,0,0,0,0,0,0,0],"sum_hessian":[3.5702435E1,1.191633E1,2.3786104E1,6.7100964E0,5.2062335E0,5.6724896E0,1.8113615E1,3.746276E0,2.9638205E0,1.8058143E0,3.4004192E0,2.3131247E0,3.359365E0,4.4002976E0,1.3713318E1,2.7409396E0,1.0053362E0,1.0228472E0,2.377572E0,1.5850685E0,1.7742965E0,2.2260325E0,2.174265E0,6.4525228E0,7.2607946E0,3.7072105E0,2.7453122E0,1.8615385E0,5.399256E0],"tree_param":{"num_deleted":"0","num_feature":"7","num_nodes":"29","size_leaf_vector":"1"}},{"base_weights":[-7.548366E-9,-9.7891584E-2,5.105808E-2,-1.8500317E-2,-6.328532E-2,-4.654658E-2,8.236899E-2,-7.985233E-2,2.0580287E-3,1.1380421E-2,-7.9645485E-2,1.5712442E-1,4.9517658E-2,-3.4116674E-2,-1.1203639E-2,6.853757E-5,1.6844422E-3,-1.0069653E-2,-3.1936541E-3,6.756297E-3,1.8383697E-2,-1.472273E-2,9.000158E-2,-4.37638E-3,-3.2977978E-4,-8.0493735E-3,5.18175E-3,2.281474E-3,1.0471861E-2],"categories":[],"categories_nodes":[],"categories_segments":[],"categories_sizes":[],"default_left":[0,0,0,0,0,0,0,0,0,0,0,0,0,0,0,0,0,0,0,0,0,0,0,0,0,0,0,0,0],"id":30,"left_children":[1,3,5,-1,7,9,11,13,-1,15,17,19,21,23,-1,-1,-1,-1,-1,-1,-1,25,27,-1,-1,-1,-1,-1,-1],"loss_changes":[1.8822801E-1,2.7208172E-2,7.947311E-2,0E0,1.6591754E-2,1.3657092E-2,3.9125696E-2,9.703554E-3,0E0,1.8089957E-4,1.1600517E-3,4.287958E-4,3.963117E-2,1.4116038E-3,0E0,0E0,0E0,0E0,0E0,0E0,0E0,3.2851163E-2,6.683804E-3,0E0,0E0,0E0,0E0,0E0,0E0],"parents":[2147483647,0,0,1,1,2,2,4,4,5,5,6,6,7,7,9,9,10,10,11,11,12,12,13,13,21,21,22,22],"right_children":[2,4,6,-1,8,10,12,14,-1,16,18,20,22,24,-1,-1,-1,-1,-1,-1,-1,26,28,-1,-1,-1,-1,-1,-1],"split_conditions":[9.920734E0,4.83E0,7.843064E0,-1.8500317E-2,9.752606E0,1.0126671E1,9.392745E0,9.7981825E0,2.0580287E-3,1.0590266E1,5E-1,1.0113049E1,5E-1,9.834761E0,-1.1203639E-2,6.853757E-5,1.6844422E-3,-1.0069653E-2,-3.1936541E-3,6.756297E-3,1.8383697E-2,1E0,1.0033405E1,-4.37638E-3,-3.2977978E-4,-8.0493735E-3,5.18175E-3,2.281474E-3,1.0471861E-2],"split_indices":[6,3,4,0,4,5,5,5,0,6,1,6,2,6,0,0,0,0,0,0,0,1,6,0,0,0,0,0,0],"split_type":[0,0,0,0,0,0,0,0,0,0,0,0,0,0,0,0,0,0,0,0,0,0,0,0,0,0,0,0,0],"sum_hessian":[3.565948E1,1.1909201E1,2.3750282E1,2.1503508E0,9.75885E0,5.6502666E0,1.8100016E1,8.189025E0,1.5698248E0,2.2931511E0,3.3571157E0,4.3708835E0,1.3729132E1,4.2332916E0,3.9557338E0,1.1559565E0,1.1371946E0,1.5587099E0,1.7984059E0,1.8149626E0,2.555921E0,5.553346E0,8.175786E0,2.9041758E0,1.3291159E0,2.6873562E0,2.8659897E0,1.9273205E0,6.248465E0],"tree_param":{"num_deleted":"0","num_feature":"7","num_nodes":"29","size_leaf_vector":"1"}},{"base_weights":[1.06784706E-8,-9.610077E-2,5.000979E-2,-1.8868593E-2,-6.36759E-2,-4.419076E-2,8.025465E-2,-1.0321108E-1,-2.880267E-2,-1.0358921E-2,-5.165549E-3,1.5190521E-1,4.871692E-2,-1.4177169E-2,6.916357E-4,5.8765663E-3,-5.2843183E-2,-2.4737467E-3,2.6117563E-3,6.54323E-3,1.7763905E-2,-1.0158314E-2,9.6241E-2,-1.3802454E-3,2.12557E-3,-7.234783E-3,-3.2995065E-4,-6.8951584E-3,6.6889557E-3,2.5025008E-3,1.11407405E-2],"categories":[],"categories_nodes":[],"categories_segments":[],"categories_sizes":[],"default_left":[0,0,0,0,0,0,0,0,0,0,0,0,0,0,0,0,0,0,0,0,0,0,0,0,0,0,0,0,0,0,0],"id":31,"left_children":[1,3,5,-1,7,9,11,13,15,-1,17,19,21,-1,-1,23,25,-1,-1,-1,-1,27,29,-1,-1,-1,-1,-1,-1,-1,-1],"loss_changes":[1.80798E-1,2.664017E-2,7.404213E-2,0E0,1.2256175E-2,1.4899395E-2,3.572557E-2,2.1320548E-2,6.3598845E-3,0E0,3.7508023E-3,3.0604005E-4,4.217526E-2,0E0,0E0,1.4648018E-3,3.9990107E-3,0E0,0E0,0E0,0E0,3.8500816E-2,6.1151087E-3,0E0,0E0,0E0,0E0,0E0,0E0,0E0,0E0],"parents":[2147483647,0,0,1,1,2,2,4,4,5,5,6,6,7,7,8,8,10,10,11,11,12,12,15,15,16,16,21,21,22,22],"right_children":[2,4,6,-1,8,10,12,14,16,-1,18,20,22,-1,-1,24,26,-1,-1,-1,-1,28,30,-1,-1,-1,-1,-1,-1,-1,-1],"split_conditions":[9.920734E0,9.741802E0,7.843064E0,-1.8868593E-2,8.014667E0,5.42495E0,9.392745E0,4.89E0,5E-1,-1.0358921E-2,1.0562662E1,1.0113049E1,1.0165891E1,-1.4177169E-2,6.916357E-4,8.413387E0,1E0,-2.4737467E-3,2.6117563E-3,6.54323E-3,1.7763905E-2,9.069583E0,8.439664E0,-1.3802454E-3,2.12557E-3,-7.234783E-3,-3.2995065E-4,-6.8951584E-3,6.6889557E-3,2.5025008E-3,1.11407405E-2],"split_indices":[6,6,4,0,4,4,5,3,1,0,6,6,5,0,0,4,1,0,0,0,0,4,4,0,0,0,0,0,0,0,0],"split_type":[0,0,0,0,0,0,0,0,0,0,0,0,0,0,0,0,0,0,0,0,0,0,0,0,0,0,0,0,0,0,0],"sum_hessian":[3.561939E1,1.18761215E1,2.3743267E1,1.8304181E0,1.0045704E1,5.6584315E0,1.8084835E1,3.7897367E0,6.255967E0,1.5876007E0,4.070831E0,4.360836E0,1.3723999E1,2.5940871E0,1.1956496E0,2.8705945E0,3.3853724E0,2.632855E0,1.4379761E0,1.8126111E0,2.5482247E0,6.4811144E0,7.2428846E0,1.3042312E0,1.5663635E0,2.098815E0,1.2865574E0,3.7356305E0,2.7454839E0,1.736928E0,5.5059566E0],"tree_param":{"num_deleted":"0","num_feature":"7","num_nodes":"31","size_leaf_vector":"1"}},{"base_weights":[-1.6169215E-9,-9.4981104E-2,4.9211252E-2,-1.331483E-1,-3.2287892E-2,-4.56135E-2,7.966962E-2,-2.0533672E-2,-8.646849E-2,1.6596208E-3,-5.5979416E-2,8.664322E-3,-7.6333195E-2,1.5051002E-2,4.847523E-2,-2.9742464E-3,-1.0469826E-2,-4.412578E-4,-7.0431144E-3,8.45153E-5,1.246481E-3,-9.476893E-3,-3.2132906E-3,-4.820806E-3,9.1018535E-2,-6.149531E-3,6.7845695E-3,4.678153E-3,1.3103751E-2],"categories":[],"categories_nodes":[],"categories_segments":[],"categories_sizes":[],"default_left":[0,0,0,0,0,0,0,0,0,0,0,0,0,0,0,0,0,0,0,0,0,0,0,0,0,0,0,0,0],"id":32,"left_children":[1,3,5,7,9,11,13,-1,15,-1,17,19,21,-1,23,-1,-1,-1,-1,-1,-1,-1,-1,25,27,-1,-1,-1,-1],"loss_changes":[1.7563102E-1,2.6386358E-2,7.51203E-2,8.026868E-3,8.078136E-3,1.1755095E-2,3.4906723E-2,0E0,3.4772716E-3,0E0,2.958173E-3,8.761039E-5,4.999619E-4,0E0,3.3847045E-2,0E0,0E0,0E0,0E0,0E0,0E0,0E0,0E0,3.501962E-2,8.464336E-3,0E0,0E0,0E0,0E0],"parents":[2147483647,0,0,1,1,2,2,3,3,4,4,5,5,6,6,8,8,10,10,11,11,12,12,14,14,23,23,24,24],"right_children":[2,4,6,8,10,12,14,-1,16,-1,18,20,22,-1,24,-1,-1,-1,-1,-1,-1,-1,-1,26,28,-1,-1,-1,-1],"split_conditions":[9.920734E0,9.867491E0,7.843064E0,4.83E0,5E-1,1.0126671E1,9.392745E0,-2.0533672E-2,9.392745E0,1.6596208E-3,0E0,1.0590266E1,5E-1,1.5051002E-2,1.0165891E1,-2.9742464E-3,-1.0469826E-2,-4.412578E-4,-7.0431144E-3,8.45153E-5,1.246481E-3,-9.476893E-3,-3.2132906E-3,9.069583E0,1E0,-6.149531E-3,6.7845695E-3,4.678153E-3,1.3103751E-2],"split_indices":[6,6,4,3,1,5,5,0,5,0,2,6,1,0,5,0,0,0,0,0,0,0,0,4,0,0,0,0,0],"split_type":[0,0,0,0,0,0,0,0,0,0,0,0,0,0,0,0,0,0,0,0,0,0,0,0,0,0,0,0,0],"sum_hessian":[3.557505E1,1.1823948E1,2.37511E1,6.6510363E0,5.1729116E0,5.6533117E0,1.809779E1,1.2771468E0,5.3738894E0,1.7864052E0,3.3865063E0,2.3026953E0,3.3506165E0,4.363549E0,1.3734241E1,1.946974E0,3.4269154E0,1.0270624E0,2.359444E0,1.1529603E0,1.1497349E0,1.5570848E0,1.7935317E0,6.490263E0,7.243978E0,3.7327366E0,2.7575262E0,4.4708643E0,2.7731137E0],"tree_param":{"num_deleted":"0","num_feature":"7","num_nodes":"29","size_leaf_vector":"1"}},{"base_weights":[-2.7911407E-9,-9.339733E-2,4.8329532E-2,-1.3029188E-1,-3.2655224E-2,-4.7354747E-2,7.9154626E-2,-7.0172705E-2,-1.7059129E-2,5.424318E-3,-6.544067E-3,-8.660267E-3,-3.433438E-3,2.4881905E-2,1.0996201E-1,-8.015341E-3,-1.6448584E-3,1.0843513E-3,-4.624899E-4,-1.9428428E-3,1.63289E-3,9.401675E-3,-2.1901289E-2,4.5476477E-3,1.3387662E-1,-6.889274E-3,4.645784E-3,1.5766118E-2,2.940302E-3],"categories":[],"categories_nodes":[],"categories_segments":[],"categories_sizes":[],"default_left":[0,0,0,0,0,0,0,0,0,0,0,0,0,0,0,0,0,0,0,0,0,0,0,0,0,0,0,0,0],"id":33,"left_children":[1,3,5,7,9,11,13,15,-1,17,-1,-1,19,21,23,-1,-1,-1,-1,-1,-1,-1,25,-1,27,-1,-1,-1,-1],"loss_changes":[1.6943622E-1,2.4431407E-2,7.6708615E-2,6.51221E-3,8.059658E-3,1.117121E-2,2.9171884E-2,1.2341328E-3,0E0,2.5592893E-4,0E0,0E0,1.6388069E-3,2.8589262E-2,1.2234107E-2,0E0,0E0,0E0,0E0,0E0,0E0,0E0,2.1520983E-2,0E0,1.562205E-2,0E0,0E0,0E0,0E0],"parents":[2147483647,0,0,1,1,2,2,3,3,4,4,5,5,6,6,7,7,9,9,12,12,13,13,14,14,22,22,24,24],"right_children":[2,4,6,8,10,12,14,16,-1,18,-1,-1,20,22,24,-1,-1,-1,-1,-1,-1,-1,26,-1,28,-1,-1,-1,-1],"split_conditions":[9.920734E0,9.867491E0,7.843064E0,9.7981825E0,9.913037E0,5.488938E0,5E-1,9.828125E0,-1.7059129E-2,1E0,-6.544067E-3,-8.660267E-3,4.89E0,8.439664E0,1.0084071E1,-8.015341E-3,-1.6448584E-3,1.0843513E-3,-4.624899E-4,-1.9428428E-3,1.63289E-3,9.401675E-3,1E0,4.5476477E-3,1.0645449E1,-6.889274E-3,4.645784E-3,1.5766118E-2,2.940302E-3],"split_indices":[6,6,4,5,6,4,2,6,0,1,0,0,3,4,6,0,0,0,0,0,0,0,1,0,5,0,0,0,0],"split_type":[0,0,0,0,0,0,0,0,0,0,0,0,0,0,0,0,0,0,0,0,0,0,0,0,0,0,0,0,0],"sum_hessian":[3.553697E1,1.1800285E1,2.3736683E1,6.628907E0,5.171378E0,5.652987E0,1.8083696E1,3.76039E0,2.868517E0,2.7786226E0,2.3927555E0,2.4721305E0,3.1808562E0,7.202632E0,1.0881064E1,2.7563746E0,1.0040154E0,1.7538118E0,1.0248108E0,1.7673318E0,1.4135245E0,2.4994261E0,4.703206E0,3.7285855E0,7.152479E0,2.7825909E0,1.9206152E0,5.411412E0,1.7410674E0],"tree_param":{"num_deleted":"0","num_feature":"7","num_nodes":"29","size_leaf_vector":"1"}},{"base_weights":[3.1127945E-9,-9.0987936E-2,4.7070157E-2,-1.791113E-2,-5.6409262E-2,-3.819722E-2,7.4330434E-2,-7.3150955E-2,2.5719951E-3,-8.045682E-3,6.2337797E-3,1.4584516E-1,4.306256E-2,-3.0889638E-2,-1.0363548E-2,-1.6068891E-3,2.88149E-3,6.634672E-3,1.733193E-2,-1.6833942E-2,9.229926E-2,-3.976732E-3,-2.613072E-4,-7.0798867E-3,5.605697E-3,2.3072434E-3,1.08905975E-2],"categories":[],"categories_nodes":[],"categories_segments":[],"categories_sizes":[],"default_left":[0,0,0,0,0,0,0,0,0,0,0,0,0,0,0,0,0,0,0,0,0,0,0,0,0,0,0],"id":34,"left_children":[1,3,5,-1,7,9,11,13,-1,-1,15,17,19,21,-1,-1,-1,-1,-1,23,25,-1,-1,-1,-1,-1,-1],"loss_changes":[1.6061161E-1,2.8857514E-2,6.028823E-2,0E0,1.6514588E-2,1.2984039E-2,3.6356673E-2,8.523051E-3,0E0,0E0,2.5625236E-3,2.5514513E-4,4.4864006E-2,1.2110411E-3,0E0,0E0,0E0,0E0,0E0,3.3358134E-2,6.9308206E-3,0E0,0E0,0E0,0E0,0E0,0E0],"parents":[2147483647,0,0,1,1,2,2,4,4,5,5,6,6,7,7,10,10,11,11,12,12,13,13,19,19,20,20],"right_children":[2,4,6,-1,8,10,12,14,-1,-1,16,18,20,22,-1,-1,-1,-1,-1,24,26,-1,-1,-1,-1,-1,-1],"split_conditions":[9.920734E0,4.83E0,7.843064E0,-1.791113E-2,9.752606E0,1.0455043E1,9.392745E0,9.7981825E0,2.5719951E-3,-8.045682E-3,1.0562662E1,1.0161448E1,1.0165891E1,9.834761E0,-1.0363548E-2,-1.6068891E-3,2.88149E-3,6.634672E-3,1.733193E-2,9.069583E0,1.0077303E1,-3.976732E-3,-2.613072E-4,-7.0798867E-3,5.605697E-3,2.3072434E-3,1.08905975E-2],"split_indices":[6,3,4,0,4,6,5,5,0,0,6,6,5,6,0,0,0,0,0,4,6,0,0,0,0,0,0],"split_type":[0,0,0,0,0,0,0,0,0,0,0,0,0,0,0,0,0,0,0,0,0,0,0,0,0,0,0],"sum_hessian":[3.55014E1,1.1785898E1,2.3715502E1,2.1434696E0,9.642428E0,5.647982E0,1.806752E1,8.100495E0,1.5419331E0,2.4791582E0,3.1688242E0,4.3816333E0,1.3685886E1,4.238234E0,3.8622613E0,1.7393323E0,1.4294918E0,2.002405E0,2.379228E0,6.4714556E0,7.214431E0,2.9162736E0,1.3219607E0,3.7349668E0,2.7364888E0,1.8580976E0,5.3563333E0],"tree_param":{"num_deleted":"0","num_feature":"7","num_nodes":"27","size_leaf_vector":"1"}},{"base_weights":[-5.9135052E-9,-9.082264E-2,4.6946995E-2,-1.9318016E-2,-6.303379E-2,-3.8793754E-2,7.430844E-2,-7.433118E-2,2.3887341E-3,-6.0751222E-2,2.5033185E-3,1.4422016E-2,4.3720376E-2,-4.706727E-2,-1.1267672E-2,-8.88989E-3,-2.3737175E-3,-1.0569766E-2,8.789839E-2,-5.2246223E-3,-6.4059504E-4,-6.137814E-3,5.6545744E-3,1.9211582E-3,1.0331325E-2],"categories":[],"categories_nodes":[],"categories_segments":[],"categories_sizes":[],"default_left":[0,0,0,0,0,0,0,0,0,0,0,0,0,0,0,0,0,0,0,0,0,0,0,0,0],"id":35,"left_children":[1,3,5,-1,7,9,11,13,-1,15,-1,-1,17,19,-1,-1,-1,21,23,-1,-1,-1,-1,-1,-1],"loss_changes":[1.5974106E-1,2.413588E-2,6.082309E-2,0E0,1.3092782E-2,1.0815119E-2,3.4466222E-2,5.613655E-3,0E0,3.334688E-3,0E0,0E0,3.6181174E-2,1.312172E-3,0E0,0E0,0E0,2.9001402E-2,6.7090094E-3,0E0,0E0,0E0,0E0,0E0,0E0],"parents":[2147483647,0,0,1,1,2,2,4,4,5,5,6,6,7,7,9,9,12,12,13,13,17,17,18,18],"right_children":[2,4,6,-1,8,10,12,14,-1,16,-1,-1,18,20,-1,-1,-1,22,24,-1,-1,-1,-1,-1,-1],"split_conditions":[9.920734E0,9.736295E0,7.843064E0,-1.9318016E-2,1.0571342E1,1.0562662E1,9.392745E0,1.0239996E1,2.3887341E-3,5.42495E0,2.5033185E-3,1.4422016E-2,1.0165891E1,1E0,-1.1267672E-2,-8.88989E-3,-2.3737175E-3,9.069583E0,8.439664E0,-5.2246223E-3,-6.4059504E-4,-6.137814E-3,5.6545744E-3,1.9211582E-3,1.0331325E-2],"split_indices":[6,6,4,0,5,6,5,5,0,4,0,0,5,1,0,0,0,4,4,0,0,0,0,0,0],"split_type":[0,0,0,0,0,0,0,0,0,0,0,0,0,0,0,0,0,0,0,0,0,0,0,0,0],"sum_hessian":[3.546404E1,1.1766415E1,2.3697624E1,1.2415545E0,1.052486E1,5.631799E0,1.8065825E1,9.442442E0,1.082418E0,4.226132E0,1.4056673E0,4.367835E0,1.3697989E1,6.8204865E0,2.6219552E0,1.6043373E0,2.6217945E0,6.486952E0,7.2110376E0,5.7971973E0,1.0232892E0,3.740654E0,2.7462978E0,1.7334213E0,5.4776163E0],"tree_param":{"num_deleted":"0","num_feature":"7","num_nodes":"25","size_leaf_vector":"1"}},{"base_weights":[2.0325326E-9,-8.944177E-2,4.6135653E-2,-1.6908279E-2,-5.744502E-2,-3.960581E-2,7.3523976E-2,-9.760483E-2,-1.5354194E-2,7.466585E-3,-6.583079E-2,1.3862783E-1,4.4726994E-2,-1.2456493E-2,-3.2356486E-3,1.2552963E-2,-4.145064E-2,-6.624872E-4,1.8067857E-3,-8.976586E-3,-2.0423E-3,5.8406736E-3,1.6309101E-2,-1.2021904E-2,8.0609635E-2,-1.3592413E-3,2.6599173E-3,-9.547936E-4,-5.0805584E-3,-7.818003E-3,5.408266E-3,1.6516218E-3,9.534451E-3],"categories":[],"categories_nodes":[],"categories_segments":[],"categories_sizes":[],"default_left":[0,0,0,0,0,0,0,0,0,0,0,0,0,0,0,0,0,0,0,0,0,0,0,0,0,0,0,0,0,0,0,0,0],"id":36,"left_children":[1,3,5,-1,7,9,11,13,15,17,19,21,23,-1,-1,25,27,-1,-1,-1,-1,-1,-1,29,31,-1,-1,-1,-1,-1,-1,-1,-1],"loss_changes":[1.54443E-1,2.274216E-2,6.0894962E-2,0E0,1.6419891E-2,8.673107E-3,2.9540159E-2,5.1836446E-3,5.1539615E-3,6.081058E-4,2.9033497E-3,1.0128841E-3,3.0889845E-2,0E0,0E0,1.7725388E-3,5.655503E-4,0E0,0E0,0E0,0E0,0E0,0E0,3.29266E-2,7.049214E-3,0E0,0E0,0E0,0E0,0E0,0E0,0E0,0E0],"parents":[2147483647,0,0,1,1,2,2,4,4,5,5,6,6,7,7,8,8,9,9,10,10,11,11,12,12,15,15,16,16,23,23,24,24],"right_children":[2,4,6,-1,8,10,12,14,16,18,20,22,24,-1,-1,26,28,-1,-1,-1,-1,-1,-1,30,32,-1,-1,-1,-1,-1,-1,-1,-1],"split_conditions":[9.920734E0,4.83E0,7.843064E0,-1.6908279E-2,8.014667E0,1.0126671E1,9.392745E0,1.5E0,5E-1,1.0590266E1,5E-1,1.0113049E1,5E-1,-1.2456493E-2,-3.2356486E-3,8.348301E0,1E0,-6.624872E-4,1.8067857E-3,-8.976586E-3,-2.0423E-3,5.8406736E-3,1.6309101E-2,1E0,1.0033405E1,-1.3592413E-3,2.6599173E-3,-9.547936E-4,-5.0805584E-3,-7.818003E-3,5.408266E-3,1.6516218E-3,9.534451E-3],"split_indices":[6,3,4,0,4,5,5,0,1,6,1,6,2,0,0,4,0,0,0,0,0,0,0,1,6,0,0,0,0,0,0,0,0],"split_type":[0,0,0,0,0,0,0,0,0,0,0,0,0,0,0,0,0,0,0,0,0,0,0,0,0,0,0,0,0,0,0,0,0],"sum_hessian":[3.5427532E1,1.17362175E1,2.3691315E1,2.1357894E0,9.600428E0,5.6275887E0,1.8063725E1,4.2379723E0,5.3624554E0,2.2694097E0,3.358179E0,4.3700356E0,1.369369E1,2.3555772E0,1.8823951E0,2.842116E0,2.5203393E0,1.1353557E0,1.134054E0,1.5593443E0,1.7988347E0,1.812831E0,2.5572045E0,5.5621066E0,8.131583E0,1.0045575E0,1.8375586E0,1.0296398E0,1.4906993E0,2.6886277E0,2.8734787E0,1.9164308E0,6.2151527E0],"tree_param":{"num_deleted":"0","num_feature":"7","num_nodes":"33","size_leaf_vector":"1"}},{"base_weights":[1.7759923E-8,-8.761249E-2,4.509704E-2,-1.248454E-1,-3.0755911E-2,-3.9010532E-2,7.201433E-2,-6.771363E-2,-1.6656723E-2,-5.1759064E-2,1.5584115E-3,-7.7783354E-3,2.6713528E-3,1.3492033E-1,4.412332E-2,-7.967658E-3,-1.1551691E-3,2.1599028E-4,-7.402368E-3,-1.5047044E-3,2.1722463E-3,5.961552E-3,1.6159123E-2,-9.370397E-3,8.744818E-2,-6.402587E-3,6.2288893E-3,2.196664E-3,1.0310913E-2],"categories":[],"categories_nodes":[],"categories_segments":[],"categories_sizes":[],"default_left":[0,0,0,0,0,0,0,0,0,0,0,0,0,0,0,0,0,0,0,0,0,0,0,0,0,0,0,0,0],"id":37,"left_children":[1,3,5,7,9,11,13,15,-1,17,-1,-1,19,21,23,-1,-1,-1,-1,-1,-1,-1,-1,25,27,-1,-1,-1,-1],"loss_changes":[1.4774233E-1,2.3059778E-2,5.8697686E-2,6.244749E-3,6.9920477E-3,1.0928605E-2,2.7474843E-2,2.2963379E-3,0E0,5.687561E-3,0E0,0E0,1.7323361E-3,1.1452138E-3,3.485574E-2,0E0,0E0,0E0,0E0,0E0,0E0,0E0,0E0,3.326435E-2,6.1554536E-3,0E0,0E0,0E0,0E0],"parents":[2147483647,0,0,1,1,2,2,3,3,4,4,5,5,6,6,7,7,9,9,12,12,13,13,14,14,23,23,24,24],"right_children":[2,4,6,8,10,12,14,16,-1,18,-1,-1,20,22,24,-1,-1,-1,-1,-1,-1,-1,-1,26,28,-1,-1,-1,-1],"split_conditions":[9.920734E0,9.8628235E0,7.843064E0,9.7981825E0,4.87E0,5.488938E0,9.392745E0,9.828125E0,-1.6656723E-2,9.880446E0,1.5584115E-3,-7.7783354E-3,4.89E0,1.0161448E1,1.0165891E1,-7.967658E-3,-1.1551691E-3,2.1599028E-4,-7.402368E-3,-1.5047044E-3,2.1722463E-3,5.961552E-3,1.6159123E-2,9.069583E0,1.0077303E1,-6.402587E-3,6.2288893E-3,2.196664E-3,1.0310913E-2],"split_indices":[6,6,4,5,3,4,5,6,0,6,0,0,3,6,5,0,0,0,0,0,0,0,0,4,6,0,0,0,0],"split_type":[0,0,0,0,0,0,0,0,0,0,0,0,0,0,0,0,0,0,0,0,0,0,0,0,0,0,0,0,0],"sum_hessian":[3.5393055E1,1.1706816E1,2.3686241E1,6.3516192E0,5.355197E0,5.6336594E0,1.8052582E1,3.7877889E0,2.5638304E0,3.604536E0,1.7506607E0,2.4699621E0,3.1636975E0,4.366614E0,1.3685967E1,2.7774713E0,1.0103176E0,1.3173219E0,2.287214E0,1.7480793E0,1.4156182E0,1.9881982E0,2.3784156E0,6.4749665E0,7.2110014E0,3.7337277E0,2.7412388E0,1.8554864E0,5.3555145E0],"tree_param":{"num_deleted":"0","num_feature":"7","num_nodes":"29","size_leaf_vector":"1"}},{"base_weights":[-1.688034E-8,-8.762908E-2,4.495154E-2,-1.2246574E-1,-3.0670365E-2,-3.8710266E-2,7.1627155E-2,-1.8910382E-2,-7.881523E-2,1.635394E-3,-5.313358E-2,-8.438202E-3,-7.2570182E-3,1.34096835E-2,4.3967407E-2,-2.6589471E-3,-9.687586E-2,-6.808127E-3,-9.559653E-4,-2.342088E-3,2.0190259E-3,-4.964806E-3,8.330438E-2,-1.3417658E-2,-3.1967114E-3,-5.6365454E-3,6.1368807E-3,4.2930357E-3,1.1977593E-2],"categories":[],"categories_nodes":[],"categories_segments":[],"categories_sizes":[],"default_left":[0,0,0,0,0,0,0,0,0,0,0,0,0,0,0,0,0,0,0,0,0,0,0,0,0,0,0,0,0],"id":38,"left_children":[1,3,5,7,9,11,13,-1,15,-1,17,-1,19,-1,21,-1,23,-1,-1,-1,-1,25,27,-1,-1,-1,-1,-1,-1],"loss_changes":[1.4715694E-1,2.1377213E-2,5.7878554E-2,6.9853067E-3,7.35584E-3,8.895704E-3,2.706059E-2,0E0,3.3302046E-3,0E0,2.209277E-3,0E0,2.697178E-3,0E0,2.8723551E-2,0E0,6.059438E-3,0E0,0E0,0E0,0E0,2.9024838E-2,6.9464445E-3,0E0,0E0,0E0,0E0,0E0,0E0],"parents":[2147483647,0,0,1,1,2,2,3,3,4,4,5,5,6,6,8,8,10,10,12,12,14,14,16,16,21,21,22,22],"right_children":[2,4,6,8,10,12,14,-1,16,-1,18,-1,20,-1,22,-1,24,-1,-1,-1,-1,26,28,-1,-1,-1,-1,-1,-1],"split_conditions":[9.920734E0,9.867491E0,7.843064E0,4.83E0,5E-1,5.42495E0,9.392745E0,-1.8910382E-2,4.86E0,1.635394E-3,1E0,-8.438202E-3,1.0562662E1,1.34096835E-2,1.0165891E1,-2.6589471E-3,1.5E0,-6.808127E-3,-9.559653E-4,-2.342088E-3,2.0190259E-3,9.069583E0,1E0,-1.3417658E-2,-3.1967114E-3,-5.6365454E-3,6.1368807E-3,4.2930357E-3,1.1977593E-2],"split_indices":[6,6,4,3,1,4,5,0,3,0,1,0,6,0,5,0,0,0,0,0,0,4,0,0,0,0,0,0,0],"split_type":[0,0,0,0,0,0,0,0,0,0,0,0,0,0,0,0,0,0,0,0,0,0,0,0,0,0,0,0,0],"sum_hessian":[3.5358364E1,1.166638E1,2.3691982E1,6.5253296E0,5.141051E0,5.618798E0,1.8073185E1,1.263781E0,5.2615485E0,1.7498655E0,3.3911853E0,1.6051953E0,4.0136023E0,4.3655305E0,1.3707655E1,1.9872551E0,3.2742934E0,2.1062288E0,1.2849563E0,2.6183417E0,1.3952607E0,6.498189E0,7.2094655E0,1.4016554E0,1.8726379E0,3.7458642E0,2.752325E0,4.454938E0,2.7545276E0],"tree_param":{"num_deleted":"0","num_feature":"7","num_nodes":"29","size_leaf_vector":"1"}},{"base_weights":[-1.5446582E-9,-8.656721E-2,4.4305976E-2,-1.202701E-1,-3.1224575E-2,-3.8587827E-2,7.0726246E-2,-1.842385E-2,-7.79099E-2,-5.2641172E-2,2.000677E-3,-8.152532E-3,-9.25247E-3,2.0942848E-2,9.930089E-2,-2.5613473E-3,-9.638793E-2,1.6803191E-4,-7.478505E-3,1.6653382E-3,-2.3558158E-3,8.755977E-3,-2.334713E-2,3.708557E-2,1.2332956E-1,-1.2949471E-2,-3.5377925E-3,-6.9196294E-3,4.6739476E-3,1.5284527E-3,4.6368553E-3,1.4753364E-2,2.183899E-3],"categories":[],"categories_nodes":[],"categories_segments":[],"categories_sizes":[],"default_left":[0,0,0,0,0,0,0,0,0,0,0,0,0,0,0,0,0,0,0,0,0,0,0,0,0,0,0,0,0,0,0,0,0],"id":39,"left_children":[1,3,5,7,9,11,13,-1,15,17,-1,-1,19,21,23,-1,25,-1,-1,-1,-1,-1,27,29,31,-1,-1,-1,-1,-1,-1,-1,-1],"loss_changes":[1.4316413E-1,1.9814484E-2,5.6802183E-2,5.9772655E-3,7.7828537E-3,7.577055E-3,2.505628E-2,0E0,3.5675503E-3,5.6598308E-3,0E0,0E0,2.2666869E-3,2.630752E-2,1.314456E-2,0E0,4.010897E-3,0E0,0E0,0E0,0E0,0E0,2.164387E-2,2.4896534E-4,1.6724564E-2,0E0,0E0,0E0,0E0,0E0,0E0,0E0,0E0],"parents":[2147483647,0,0,1,1,2,2,3,3,4,4,5,5,6,6,8,8,9,9,12,12,13,13,14,14,16,16,22,22,23,23,24,24],"right_children":[2,4,6,8,10,12,14,-1,16,18,-1,-1,20,22,24,-1,26,-1,-1,-1,-1,-1,28,30,32,-1,-1,-1,-1,-1,-1,-1,-1],"split_conditions":[9.920734E0,9.867491E0,7.843064E0,4.83E0,4.87E0,4.82E0,5E-1,-1.842385E-2,4.86E0,9.880446E0,2.000677E-3,-8.152532E-3,1.0126671E1,8.439664E0,1.0084071E1,-2.5613473E-3,1.5E0,1.6803191E-4,-7.478505E-3,1.6653382E-3,-2.3558158E-3,8.755977E-3,8.90463E0,1E0,1.0645449E1,-1.2949471E-2,-3.5377925E-3,-6.9196294E-3,4.6739476E-3,1.5284527E-3,4.6368553E-3,1.4753364E-2,2.183899E-3],"split_indices":[6,6,4,3,3,3,2,0,3,6,0,0,5,4,6,0,0,0,0,0,0,0,4,2,5,0,0,0,0,0,0,0,0],"split_type":[0,0,0,0,0,0,0,0,0,0,0,0,0,0,0,0,0,0,0,0,0,0,0,0,0,0,0,0,0,0,0,0,0],"sum_hessian":[3.5326603E1,1.1636597E1,2.3690006E1,6.503105E0,5.133492E0,5.6143627E0,1.8075644E1,1.2564312E0,5.246674E0,3.6007333E0,1.5327587E0,1.5567303E0,4.0576324E0,7.2235417E0,1.0852102E1,1.992805E0,3.253869E0,1.3103677E0,2.2903657E0,1.3851628E0,2.6724694E0,2.4945312E0,4.7290106E0,3.732153E0,7.1199493E0,1.3816226E0,1.8722465E0,2.8665066E0,1.8625042E0,1.904934E0,1.8272188E0,5.3826046E0,1.7373445E0],"tree_param":{"num_deleted":"0","num_feature":"7","num_nodes":"33","size_leaf_vector":"1"}},{"base_weights":[7.552425E-9,-8.649234E-2,4.4249505E-2,-1.5825648E-2,-5.6857582E-2,-5.303943E-2,6.492553E-2,-9.567271E-2,-1.6338306E-2,-7.3627555E-3,-9.376812E-5,1.1819451E-2,3.925832E-2,-1.1694069E-2,-3.8102611E-3,5.447497E-3,-5.247941E-3,-7.4837334E-3,8.2017444E-2,-2.4903743E-3,3.5336043E-3,4.517145E-3,-6.0121394E-3,1.8146494E-3,9.789438E-3],"categories":[],"categories_nodes":[],"categories_segments":[],"categories_sizes":[],"default_left":[0,0,0,0,0,0,0,0,0,0,0,0,0,0,0,0,0,0,0,0,0,0,0,0,0],"id":40,"left_children":[1,3,5,-1,7,9,11,13,15,-1,-1,-1,17,-1,-1,19,-1,21,23,-1,-1,-1,-1,-1,-1],"loss_changes":[1.4272921E-1,1.7844811E-2,5.307088E-2,0E0,1.4940925E-2,5.1597916E-3,2.3794383E-2,1.8543229E-3,5.2778237E-3,0E0,0E0,0E0,3.1656116E-2,0E0,0E0,5.2902116E-3,0E0,2.5821924E-2,6.5339357E-3,0E0,0E0,0E0,0E0,0E0,0E0],"parents":[2147483647,0,0,1,1,2,2,4,4,5,5,6,6,7,7,8,8,12,12,15,15,17,17,18,18],"right_children":[2,4,6,-1,8,10,12,14,16,-1,-1,-1,18,-1,-1,20,-1,22,24,-1,-1,-1,-1,-1,-1],"split_conditions":[9.920734E0,4.83E0,7.5294065E0,-1.5825648E-2,8.014667E0,4.89E0,9.392745E0,1.5E0,9.913037E0,-7.3627555E-3,-9.376812E-5,1.1819451E-2,1.0165891E1,-1.1694069E-2,-3.8102611E-3,9.834761E0,-5.247941E-3,9.7981825E0,1.0077303E1,-2.4903743E-3,3.5336043E-3,4.517145E-3,-6.0121394E-3,1.8146494E-3,9.789438E-3],"split_indices":[6,3,4,0,4,3,5,0,6,0,0,0,5,0,0,6,0,5,6,0,0,0,0,0,0],"split_type":[0,0,0,0,0,0,0,0,0,0,0,0,0,0,0,0,0,0,0,0,0,0,0,0,0],"sum_hessian":[3.529296E1,1.1621779E1,2.3671179E1,2.128099E0,9.493681E0,3.8745608E0,1.979662E1,4.153603E0,5.340078E0,2.4810276E0,1.3935331E0,5.264969E0,1.453165E1,2.2800245E0,1.8735783E0,3.861589E0,1.4784887E0,7.336619E0,7.195031E0,1.9987137E0,1.8628753E0,3.7386076E0,3.598011E0,1.8590893E0,5.335942E0],"tree_param":{"num_deleted":"0","num_feature":"7","num_nodes":"25","size_leaf_vector":"1"}},{"base_weights":[-7.544133E-9,-8.496146E-2,4.335124E-2,-1.30611425E-2,-4.296581E-2,-5.1791754E-2,6.3474804E-2,-8.964132E-3,-1.6053393E-2,-8.608723E-3,-9.383044E-4,4.6238948E-2,1.5287478E-2,1.1877771E-2,-4.207088E-2,8.373959E-2,-2.762298E-2,-8.6718064E-4,2.228582E-3,-1.094889E-3,-5.061215E-3,3.3839294E-3,1.5099159E-2,-8.927003E-3,2.865165E-3],"categories":[],"categories_nodes":[],"categories_segments":[],"categories_sizes":[],"default_left":[0,0,0,0,0,0,0,0,0,0,0,0,0,0,0,0,0,0,0,0,0,0,0,0,0],"id":41,"left_children":[1,3,5,-1,7,9,11,-1,13,-1,-1,15,-1,17,19,21,23,-1,-1,-1,-1,-1,-1,-1,-1],"loss_changes":[1.3724802E-1,1.8523835E-2,5.0528202E-2,0E0,8.669849E-3,6.258266E-3,2.5005437E-2,0E0,5.094297E-3,0E0,0E0,5.4621022E-2,0E0,1.0122021E-3,3.7452066E-4,3.775665E-2,2.722774E-2,0E0,0E0,0E0,0E0,0E0,0E0,0E0,0E0],"parents":[2147483647,0,0,1,1,2,2,4,4,5,5,6,6,8,8,11,11,13,13,14,14,15,15,16,16],"right_children":[2,4,6,-1,8,10,12,-1,14,-1,-1,16,-1,18,20,22,24,-1,-1,-1,-1,-1,-1,-1,-1],"split_conditions":[9.920734E0,8.014667E0,7.5294065E0,-1.30611425E-2,4.83E0,1E0,1.0756067E1,-8.964132E-3,5E-1,-8.608723E-3,-9.383044E-4,1.0365969E1,1.5287478E-2,8.348301E0,1E0,1.0084071E1,1.0590265E1,-8.6718064E-4,2.228582E-3,-1.094889E-3,-5.061215E-3,3.3839294E-3,1.5099159E-2,-8.927003E-3,2.865165E-3],"split_indices":[6,4,4,0,3,0,6,0,1,0,0,6,0,4,0,6,6,0,0,0,0,0,0,0,0],"split_type":[0,0,0,0,0,0,0,0,0,0,0,0,0,0,0,0,0,0,0,0,0,0,0,0,0],"sum_hessian":[3.5263412E1,1.1589677E1,2.3673735E1,4.5421576E0,7.0475187E0,3.858289E0,1.9815445E1,1.7249694E0,5.3225493E0,1.563755E0,2.294534E0,1.78846E1,1.930845E0,2.8289695E0,2.4935799E0,1.17733755E1,6.111225E0,1.0071927E0,1.8217769E0,1.0283694E0,1.4652106E0,7.6214833E0,4.151892E0,2.6365933E0,3.4746315E0],"tree_param":{"num_deleted":"0","num_feature":"7","num_nodes":"25","size_leaf_vector":"1"}},{"base_weights":[5.0645066E-9,-8.319846E-2,4.2458124E-2,-1.157782E-1,-2.9605549E-2,-5.800034E-2,6.3947916E-2,-1.7782006E-2,-7.472426E-2,-4.9541153E-2,1.8345505E-3,-7.867846E-3,-3.2482285E-4,4.7944512E-2,1.4537744E-2,-2.7264229E-3,-9.005473E-3,-1.8738043E-4,-6.798576E-3,8.200845E-2,-2.0050572E-2,4.7008065E-3,1.7436083E-2,-7.7953907E-3,3.1352625E-3],"categories":[],"categories_nodes":[],"categories_segments":[],"categories_sizes":[],"default_left":[0,0,0,0,0,0,0,0,0,0,0,0,0,0,0,0,0,0,0,0,0,0,0,0,0],"id":42,"left_children":[1,3,5,7,9,11,13,-1,15,17,-1,-1,-1,19,-1,-1,-1,-1,-1,21,23,-1,-1,-1,-1],"loss_changes":[1.3150159E-1,1.853501E-2,5.6920297E-2,5.7628974E-3,6.739282E-3,5.2557345E-3,2.0109765E-2,0E0,2.0745173E-3,3.8979128E-3,0E0,0E0,0E0,4.5325596E-2,0E0,0E0,0E0,0E0,0E0,3.305213E-2,2.3571007E-2,0E0,0E0,0E0,0E0],"parents":[2147483647,0,0,1,1,2,2,3,3,4,4,5,5,6,6,8,8,9,9,13,13,19,19,20,20],"right_children":[2,4,6,8,10,12,14,-1,16,18,-1,-1,-1,20,-1,-1,-1,-1,-1,22,24,-1,-1,-1,-1],"split_conditions":[9.920734E0,9.867491E0,7.5294065E0,4.83E0,4.87E0,4.89E0,1.0756067E1,-1.7782006E-2,9.392745E0,9.880446E0,1.8345505E-3,-7.867846E-3,-3.2482285E-4,1.0365969E1,1.4537744E-2,-2.7264229E-3,-9.005473E-3,-1.8738043E-4,-6.798576E-3,1.01130495E1,1.0590265E1,4.7008065E-3,1.7436083E-2,-7.7953907E-3,3.1352625E-3],"split_indices":[6,6,4,3,3,3,6,0,5,6,0,0,0,6,0,0,0,0,0,6,6,0,0,0,0],"split_type":[0,0,0,0,0,0,0,0,0,0,0,0,0,0,0,0,0,0,0,0,0,0,0,0,0],"sum_hessian":[3.5226738E1,1.15785475E1,2.364819E1,6.4793496E0,5.099198E0,3.867904E0,1.9780285E1,1.2535595E0,5.2257905E0,3.578344E0,1.5208538E0,2.4903753E0,1.3775288E0,1.785919E1,1.9210954E0,1.9542528E0,3.2715375E0,1.3056573E0,2.272687E0,1.1761075E1,6.0981154E0,9.623063E0,2.138012E0,2.6248379E0,3.4732776E0],"tree_param":{"num_deleted":"0","num_feature":"7","num_nodes":"25","size_leaf_vector":"1"}},{"base_weights":[-1.6178172E-8,-8.191389E-2,4.1889485E-2,-1.6680969E-2,-5.5699673E-2,-6.022823E-2,6.383644E-2,-8.824154E-2,-2.56137E-2,-8.759482E-3,-2.0251689E-3,1.9711077E-2,8.5920386E-2,-1.1823688E-2,-8.208061E-4,9.231431E-3,-5.037034E-2,5.7114188E-2,-4.0509077E-3,1.3715352E-3,1.0204774E-1,-9.589591E-4,1.9398157E-3,-6.36838E-3,-1.0158651E-3,9.1197565E-3,1.8653289E-3,1.4993319E-3,1.1912215E-2],"categories":[],"categories_nodes":[],"categories_segments":[],"categories_sizes":[],"default_left":[0,0,0,0,0,0,0,0,0,0,0,0,0,0,0,0,0,0,0,0,0,0,0,0,0,0,0,0,0],"id":43,"left_children":[1,3,5,-1,7,9,11,13,15,-1,-1,17,19,-1,-1,21,23,25,-1,-1,27,-1,-1,-1,-1,-1,-1,-1,-1],"loss_changes":[1.2761605E-1,1.8713951E-2,5.899444E-2,0E0,8.62325E-3,3.551308E-3,1.851669E-2,1.0867499E-2,6.663189E-3,0E0,0E0,2.0818306E-2,1.4349289E-2,0E0,0E0,9.188005E-4,1.6848138E-3,5.4860916E-3,0E0,0E0,1.4415689E-2,0E0,0E0,0E0,0E0,0E0,0E0,0E0,0E0],"parents":[2147483647,0,0,1,1,2,2,4,4,5,5,6,6,7,7,8,8,11,11,12,12,15,15,16,16,17,17,20,20],"right_children":[2,4,6,-1,8,10,12,14,16,-1,-1,18,20,-1,-1,22,24,26,-1,-1,28,-1,-1,-1,-1,-1,-1,-1,-1],"split_conditions":[9.920734E0,9.741801E0,7.5294065E0,-1.6680969E-2,8.014667E0,1E0,5E-1,4.89E0,5E-1,-8.759482E-3,-2.0251689E-3,8.779712E0,8.235361E0,-1.1823688E-2,-8.208061E-4,8.348301E0,1E0,8.088255E0,-4.0509077E-3,1.3715352E-3,1.0033405E1,-9.589591E-4,1.9398157E-3,-6.36838E-3,-1.0158651E-3,9.1197565E-3,1.8653289E-3,1.4993319E-3,1.1912215E-2],"split_indices":[6,6,4,0,4,0,2,3,1,0,0,4,4,0,0,4,1,4,0,0,6,0,0,0,0,0,0,0,0],"split_type":[0,0,0,0,0,0,0,0,0,0,0,0,0,0,0,0,0,0,0,0,0,0,0,0,0,0,0,0,0],"sum_hessian":[3.519141E1,1.1583903E1,2.3607508E1,1.4676219E0,1.01162815E1,3.867593E0,1.9739916E1,3.9312005E0,6.185081E0,1.5887994E0,2.2787938E0,7.215454E0,1.2524461E1,2.5122895E0,1.418911E0,2.829564E0,3.3555167E0,4.4827604E0,2.7326937E0,2.6245093E0,9.899952E0,1.0123082E0,1.817256E0,2.0823646E0,1.2731521E0,1.649673E0,2.8330874E0,1.9312949E0,7.968657E0],"tree_param":{"num_deleted":"0","num_feature":"7","num_nodes":"29","size_leaf_vector":"1"}},{"base_weights":[7.2111545E-10,-9.725645E-2,3.4178864E-2,-5.5218372E-2,-1.5150733E-2,-5.4891873E-2,5.536731E-2,-8.980354E-3,-2.680182E-2,-7.445381E-3,4.3988889E-4,6.923894E-2,-1.5777323E-2,-4.085328E-3,-6.3099246E-3,1.3499923E-2,9.267386E-2,8.4436E-3,-1.0540384E-2,-8.8861736E-4,-1.3287633E-4,6.20238E-3,-1.1780792E-3,7.325906E-3,1.3700909E-2],"categories":[],"categories_nodes":[],"categories_segments":[],"categories_sizes":[],"default_left":[0,0,0,0,0,0,0,0,0,0,0,0,0,0,0,0,0,0,0,0,0,0,0,0,0],"id":44,"left_children":[1,3,5,7,-1,9,11,-1,13,-1,-1,15,17,-1,19,21,23,-1,-1,-1,-1,-1,-1,-1,-1],"loss_changes":[1.2353103E-1,1.3673164E-2,5.493599E-2,4.490517E-3,0E0,7.038934E-3,2.350653E-2,0E0,1.2619977E-3,0E0,0E0,2.3817807E-2,4.949912E-2,0E0,3.0921132E-5,9.135062E-3,1.4458373E-3,0E0,0E0,0E0,0E0,0E0,0E0,0E0,0E0],"parents":[2147483647,0,0,1,1,2,2,3,3,5,5,6,6,8,8,11,11,12,12,14,14,15,15,16,16],"right_children":[2,4,6,8,-1,10,12,-1,14,-1,-1,16,18,-1,20,22,24,-1,-1,-1,-1,-1,-1,-1,-1],"split_conditions":[9.889239E0,9.7981825E0,7.5294065E0,4.83E0,-1.5150733E-2,4.89E0,4.89E0,-8.980354E-3,9.828125E0,-7.445381E-3,4.3988889E-4,1.0033405E1,5E-1,-4.085328E-3,8.348301E0,5E-1,1.0756067E1,8.4436E-3,-1.0540384E-2,-8.8861736E-4,-1.3287633E-4,6.20238E-3,-1.1780792E-3,7.325906E-3,1.3700909E-2],"split_indices":[6,5,4,3,0,3,3,0,6,0,0,6,1,0,4,1,6,0,0,0,0,0,0,0,0],"split_type":[0,0,0,0,0,0,0,0,0,0,0,0,0,0,0,0,0,0,0,0,0,0,0,0,0],"sum_hessian":[3.5162075E1,8.663746E0,2.649833E1,6.018188E0,2.645558E0,4.7864943E0,2.1711836E1,1.740098E0,4.27809E0,3.406755E0,1.3797389E0,1.8191652E1,3.5201833E0,1.9484153E0,2.329675E0,5.8511024E0,1.2340549E1,1.6892782E0,1.8309052E0,1.0187979E0,1.310877E0,1.5063692E0,4.344733E0,1.0426903E1,1.9136474E0],"tree_param":{"num_deleted":"0","num_feature":"7","num_nodes":"25","size_leaf_vector":"1"}},{"base_weights":[9.6011235E-9,-7.928222E-2,4.035846E-2,-1.5230444E-2,-4.9600013E-2,-7.333223E-3,5.6435365E-2,-6.439752E-2,2.2725537E-3,2.561135E-2,9.2646666E-2,-1.7661892E-2,-8.848263E-3,5.308139E-2,-6.309913E-3,3.2640245E-2,1.4204112E-2,-2.662341E-3,1.5521962E-4,6.2263006E-4,7.148899E-3,5.2164444E-3,-3.99156E-4],"categories":[],"categories_nodes":[],"categories_segments":[],"categories_sizes":[],"default_left":[0,0,0,0,0,0,0,0,0,0,0,0,0,0,0,0,0,0,0,0,0,0,0],"id":45,"left_children":[1,3,5,-1,7,-1,9,11,-1,13,15,17,-1,19,-1,21,-1,-1,-1,-1,-1,-1,-1],"loss_changes":[1.1881484E-1,1.9595534E-2,4.9114924E-2,0E0,1.2582088E-2,0E0,2.2320926E-2,8.438755E-3,0E0,3.583976E-2,2.438324E-2,7.7676016E-4,0E0,8.803751E-3,0E0,4.2983796E-3,0E0,0E0,0E0,0E0,0E0,0E0,0E0],"parents":[2147483647,0,0,1,1,2,2,4,4,6,6,7,7,9,9,10,10,11,11,13,13,15,15],"right_children":[2,4,6,-1,8,-1,10,12,-1,14,16,18,-1,20,-1,22,-1,-1,-1,-1,-1,-1,-1],"split_conditions":[9.920734E0,4.83E0,5.488938E0,-1.5230444E-2,9.752606E0,-7.333223E-3,9.069583E0,9.392745E0,2.2725537E-3,8.802523E0,1.0084071E1,8.348301E0,-8.848263E-3,7.843064E0,-6.309913E-3,5E-1,1.4204112E-2,-2.662341E-3,1.5521962E-4,6.2263006E-4,7.148899E-3,5.2164444E-3,-3.99156E-4],"split_indices":[6,3,4,0,4,0,4,5,0,4,6,4,0,4,0,1,0,0,0,0,0,0,0],"split_type":[0,0,0,0,0,0,0,0,0,0,0,0,0,0,0,0,0,0,0,0,0,0,0],"sum_hessian":[3.5133026E1,1.1526103E1,2.3606924E1,2.137181E0,9.388922E0,2.4834468E0,2.1123478E1,7.8852487E0,1.5036734E0,1.2332772E1,8.790705E0,3.271133E0,4.6141157E0,9.723448E0,2.6093242E0,4.718854E0,4.0718513E0,1.9677485E0,1.3033843E0,3.119995E0,6.603453E0,2.801615E0,1.9172387E0],"tree_param":{"num_deleted":"0","num_feature":"7","num_nodes":"23","size_leaf_vector":"1"}},{"base_weights":[9.531238E-9,-7.7937186E-2,3.957449E-2,-1.1038974E-1,-2.4988204E-2,-3.545086E-2,6.349895E-2,-1.6804595E-2,-7.169888E-2,1.7136447E-3,-4.5568727E-2,-7.6455544E-3,8.03619E-3,1.5802333E-2,9.137981E-2,-2.467469E-3,-8.8270135E-2,-8.466705E-4,-5.4619913E-3,-6.111101E-4,2.1162524E-3,8.36221E-3,-1.3980088E-2,2.1389143E-3,1.0288137E-1,-1.2077662E-2,-3.1654953E-3,-6.3269543E-3,4.019718E-3,1.2149521E-2,5.8451053E-3],"categories":[],"categories_nodes":[],"categories_segments":[],"categories_sizes":[],"default_left":[0,0,0,0,0,0,0,0,0,0,0,0,0,0,0,0,0,0,0,0,0,0,0,0,0,0,0,0,0,0,0],"id":46,"left_children":[1,3,5,7,9,11,13,-1,15,-1,17,-1,19,21,23,-1,25,-1,-1,-1,-1,-1,27,-1,29,-1,-1,-1,-1,-1,-1],"loss_changes":[1.14443295E-1,1.8713497E-2,4.6422824E-2,4.5812503E-3,6.018117E-3,1.236871E-2,2.3845516E-2,0E0,2.6574358E-3,0E0,9.92164E-4,0E0,8.914383E-4,1.778144E-2,7.2925314E-3,0E0,3.9070174E-3,0E0,0E0,0E0,0E0,0E0,2.0092163E-2,0E0,1.0576397E-3,0E0,0E0,0E0,0E0,0E0,0E0],"parents":[2147483647,0,0,1,1,2,2,3,3,4,4,5,5,6,6,8,8,10,10,12,12,13,13,14,14,16,16,22,22,24,24],"right_children":[2,4,6,8,10,12,14,-1,16,-1,18,-1,20,22,24,-1,26,-1,-1,-1,-1,-1,28,-1,30,-1,-1,-1,-1,-1,-1],"split_conditions":[9.920734E0,9.867491E0,7.843064E0,4.83E0,5E-1,1.0455043E1,5E-1,-1.6804595E-2,4.86E0,1.7136447E-3,0E0,-7.6455544E-3,1.0562662E1,9.392745E0,1.0033405E1,-2.467469E-3,1.5E0,-8.466705E-4,-5.4619913E-3,-6.111101E-4,2.1162524E-3,8.36221E-3,1.0165891E1,2.1389143E-3,1.0365969E1,-1.2077662E-2,-3.1654953E-3,-6.3269543E-3,4.019718E-3,1.2149521E-2,5.8451053E-3],"split_indices":[6,6,4,3,1,6,2,0,3,0,2,0,6,5,6,0,0,0,0,0,0,0,5,0,6,0,0,0,0,0,0],"split_type":[0,0,0,0,0,0,0,0,0,0,0,0,0,0,0,0,0,0,0,0,0,0,0,0,0,0,0,0,0,0,0],"sum_hessian":[3.5104828E1,1.1495816E1,2.360901E1,6.4548135E0,5.0410028E0,5.5917897E0,1.8017221E1,1.2495158E0,5.2052975E0,1.709437E0,3.3315656E0,2.4878404E0,3.1039493E0,7.224622E0,1.0792599E1,2.0049272E0,3.2003706E0,1.0329187E0,2.298647E0,1.751095E0,1.3528544E0,1.652904E0,5.5717177E0,1.9268403E0,8.865759E0,1.3131272E0,1.8872433E0,2.8295877E0,2.74213E0,5.0257416E0,3.8400168E0],"tree_param":{"num_deleted":"0","num_feature":"7","num_nodes":"31","size_leaf_vector":"1"}},{"base_weights":[3.3750391E-9,-7.731532E-2,3.9232194E-2,-1.08623184E-1,-2.5961565E-2,-3.2778665E-2,6.2087078E-2,-1.6452046E-2,-7.083914E-2,-4.5489024E-2,2.0073266E-3,-7.180056E-3,8.408166E-3,1.5369369E-2,8.940094E-2,-2.3953614E-3,-8.7617345E-2,1.0825866E-4,-6.440053E-3,-7.692167E-4,2.3569025E-3,7.1296366E-3,-2.2008024E-2,3.4154763E-3,1.0321366E-1,-1.1713634E-2,-3.377932E-3,-6.469676E-3,4.236629E-3,1.2827071E-2,5.554382E-3],"categories":[],"categories_nodes":[],"categories_segments":[],"categories_sizes":[],"default_left":[0,0,0,0,0,0,0,0,0,0,0,0,0,0,0,0,0,0,0,0,0,0,0,0,0,0,0,0,0,0,0],"id":47,"left_children":[1,3,5,7,9,11,13,-1,15,17,-1,-1,19,21,23,-1,25,-1,-1,-1,-1,-1,27,-1,29,-1,-1,-1,-1,-1,-1],"loss_changes":[1.1247201E-1,1.724784E-2,4.251842E-2,4.0595233E-3,6.3440804E-3,1.1179918E-2,2.289293E-2,0E0,2.775034E-3,4.075531E-3,0E0,0E0,1.181267E-3,1.8760681E-2,5.474247E-3,0E0,2.6966222E-3,0E0,0E0,0E0,0E0,0E0,1.8387444E-2,0E0,3.5538152E-3,0E0,0E0,0E0,0E0,0E0,0E0],"parents":[2147483647,0,0,1,1,2,2,3,3,4,4,5,5,6,6,8,8,9,9,12,12,13,13,14,14,16,16,22,22,24,24],"right_children":[2,4,6,8,10,12,14,-1,16,18,-1,-1,20,22,24,-1,26,-1,-1,-1,-1,-1,28,-1,30,-1,-1,-1,-1,-1,-1],"split_conditions":[9.920734E0,9.867491E0,7.843064E0,4.83E0,4.87E0,1.0455043E1,5E-1,-1.6452046E-2,4.86E0,9.880446E0,2.0073266E-3,-7.180056E-3,1.0562662E1,8.439664E0,1.0077303E1,-2.3953614E-3,1.5E0,1.0825866E-4,-6.440053E-3,-7.692167E-4,2.3569025E-3,7.1296366E-3,8.90463E0,3.4154763E-3,1.0365969E1,-1.1713634E-2,-3.377932E-3,-6.469676E-3,4.236629E-3,1.2827071E-2,5.554382E-3],"split_indices":[6,6,4,3,3,6,2,0,3,6,0,0,6,4,6,0,0,0,0,0,0,0,4,0,6,0,0,0,0,0,0],"split_type":[0,0,0,0,0,0,0,0,0,0,0,0,0,0,0,0,0,0,0,0,0,0,0,0,0,0,0,0,0,0,0],"sum_hessian":[3.507971E1,1.148176E1,2.3597946E1,6.4402575E0,5.041503E0,5.580566E0,1.8017382E1,1.2446727E0,5.195585E0,3.5482368E0,1.493266E0,2.4839206E0,3.0966454E0,7.224046E0,1.0793335E1,2.0090628E0,3.186522E0,1.2969972E0,2.2512395E0,1.7407043E0,1.3559409E0,2.530396E0,4.6936502E0,2.8534021E0,7.939933E0,1.2987237E0,1.8877983E0,2.819162E0,1.8744884E0,4.09607E0,3.8438625E0],"tree_param":{"num_deleted":"0","num_feature":"7","num_nodes":"31","size_leaf_vector":"1"}},{"base_weights":[1.3793625E-8,-7.698352E-2,3.902124E-2,-1.0712411E-1,-2.7130917E-2,-6.5867202E-3,5.3738914E-2,-5.85993E-2,-1.424439E-2,1.2947499E-3,-4.590111E-2,3.6677077E-2,1.2706289E-2,-6.9872043E-3,-8.2123355E-4,-5.845017E-3,-8.6180744E-4,7.525965E-2,-3.2906894E-2,3.0248992E-3,1.3685072E-2,1.149869E-3,-1.14724245E-2],"categories":[],"categories_nodes":[],"categories_segments":[],"categories_sizes":[],"default_left":[0,0,0,0,0,0,0,0,0,0,0,0,0,0,0,0,0,0,0,0,0,0,0],"id":48,"left_children":[1,3,5,7,9,-1,11,13,-1,-1,15,17,-1,-1,-1,-1,-1,19,21,-1,-1,-1,-1],"loss_changes":[1.1131227E-1,1.5822388E-2,4.1500255E-2,4.384905E-3,5.1347623E-3,0E0,2.300682E-2,2.1686498E-3,0E0,0E0,1.5223762E-3,5.4416448E-2,0E0,0E0,0E0,0E0,0E0,3.1206243E-2,2.891862E-2,0E0,0E0,0E0,0E0],"parents":[2147483647,0,0,1,1,2,2,3,3,4,4,6,6,7,7,10,10,11,11,17,17,18,18],"right_children":[2,4,6,8,10,-1,12,14,-1,-1,16,18,-1,-1,-1,-1,-1,20,22,-1,-1,-1,-1],"split_conditions":[9.920734E0,9.867491E0,5.488938E0,9.7981825E0,5E-1,-6.5867202E-3,1.0742443E1,9.828125E0,-1.424439E-2,1.2947499E-3,1E0,1.0365969E1,1.2706289E-2,-6.9872043E-3,-8.2123355E-4,-5.845017E-3,-8.6180744E-4,1.0084071E1,8.439664E0,3.0248992E-3,1.3685072E-2,1.149869E-3,-1.14724245E-2],"split_indices":[6,6,4,5,1,0,6,6,0,0,1,6,0,0,0,0,0,6,4,0,0,0,0],"split_type":[0,0,0,0,0,0,0,0,0,0,0,0,0,0,0,0,0,0,0,0,0,0,0],"sum_hessian":[3.505479E1,1.1464345E1,2.3590446E1,6.4287453E0,5.0355997E0,2.4751835E0,2.1115263E1,3.828285E0,2.6004605E0,1.7050848E0,3.330515E0,1.8346418E1,2.768843E0,2.812381E0,1.015904E0,2.0670328E0,1.2634821E0,1.1749854E1,6.5965657E0,7.6502147E0,4.099639E0,4.832974E0,1.7635913E0],"tree_param":{"num_deleted":"0","num_feature":"7","num_nodes":"23","size_leaf_vector":"1"}},{"base_weights":[2.321563E-9,-7.5723365E-2,3.8373657E-2,-1.4412177E-2,-4.771927E-2,-3.5722934E-2,6.1984275E-2,-8.2358405E-2,-1.1848797E-2,-7.394416E-3,5.535879E-3,1.19513E-1,3.6253456E-2,-1.0025979E-2,-3.3983532E-3,-2.5632635E-2,1.9223432E-3,-8.978965E-4,2.0148086E-3,4.9919602E-3,1.5032994E-2,-1.2170145E-2,7.606787E-2,-6.1325333E-4,-4.1514663E-3,-5.691568E-3,4.749021E-3,1.8454845E-3,9.0565095E-3],"categories":[],"categories_nodes":[],"categories_segments":[],"categories_sizes":[],"default_left":[0,0,0,0,0,0,0,0,0,0,0,0,0,0,0,0,0,0,0,0,0,0,0,0,0,0,0,0,0],"id":49,"left_children":[1,3,5,-1,7,9,11,13,15,-1,17,19,21,-1,-1,23,-1,-1,-1,-1,-1,25,27,-1,-1,-1,-1,-1,-1],"loss_changes":[1.0758102E-1,1.6973197E-2,4.520093E-2,0E0,1.1858966E-2,1.0773082E-2,2.3791231E-2,9.980202E-4,3.1664502E-3,0E0,1.0485309E-3,4.154362E-3,2.9002883E-2,0E0,0E0,1.2173939E-3,0E0,0E0,0E0,0E0,0E0,2.2546127E-2,5.1189996E-3,0E0,0E0,0E0,0E0,0E0,0E0],"parents":[2147483647,0,0,1,1,2,2,4,4,5,5,6,6,7,7,8,8,10,10,11,11,12,12,15,15,21,21,22,22],"right_children":[2,4,6,-1,8,10,12,14,16,-1,18,20,22,-1,-1,24,-1,-1,-1,-1,-1,26,28,-1,-1,-1,-1,-1,-1],"split_conditions":[9.920734E0,4.83E0,7.843064E0,-1.4412177E-2,8.014667E0,1.0455043E1,9.392745E0,1.5E0,4.87E0,-7.394416E-3,1.0562662E1,1.0217869E1,1.0165891E1,-1.0025979E-2,-3.3983532E-3,9.392745E0,1.9223432E-3,-8.978965E-4,2.0148086E-3,4.9919602E-3,1.5032994E-2,9.069583E0,1.0077303E1,-6.1325333E-4,-4.1514663E-3,-5.691568E-3,4.749021E-3,1.8454845E-3,9.0565095E-3],"split_indices":[6,3,4,0,4,6,5,0,3,0,6,6,5,0,0,5,0,0,0,0,0,4,6,0,0,0,0,0,0],"split_type":[0,0,0,0,0,0,0,0,0,0,0,0,0,0,0,0,0,0,0,0,0,0,0,0,0,0,0,0,0],"sum_hessian":[3.5023087E1,1.145178E1,2.3571304E1,2.1221342E0,9.329646E0,5.571961E0,1.7999344E1,4.0869737E0,5.242673E0,2.4812162E0,3.0907447E0,4.4361963E0,1.3563148E1,2.2002137E0,1.88676E0,3.7529175E0,1.4897553E0,1.7439404E0,1.3468044E0,2.165579E0,2.2706172E0,6.433203E0,7.1299443E0,2.3067718E0,1.4461458E0,3.7023952E0,2.730808E0,1.8903894E0,5.239555E0],"tree_param":{"num_deleted":"0","num_feature":"7","num_nodes":"29","size_leaf_vector":"1"}},{"base_weights":[-1.3285732E-8,-7.5615585E-2,3.8313836E-2,-1.5749417E-2,-5.2860998E-2,-3.537833E-2,6.1757367E-2,-8.4268205E-2,-2.281927E-2,-6.980085E-3,2.7107259E-3,1.18841834E-1,3.6304176E-2,-3.1675473E-2,-1.2554302E-2,7.6183495E-3,-4.4232238E-2,-1.213564E-3,1.9000417E-3,5.4826746E-3,1.4444053E-2,-1.5549469E-2,7.001073E-2,-3.9281724E-3,-1.1402781E-3,-1.1957748E-3,1.9064903E-3,-7.121448E-4,-5.3723133E-3,2.4180787E-3,-8.004472E-3,3.1336993E-3,9.016149E-3],"categories":[],"categories_nodes":[],"categories_segments":[],"categories_sizes":[],